{"learner":{"attributes":{"best_iteration":"1","best_score":"0.01987577639751553","scikit_learn":"{\"_estimator_type\": \"classifier\"}"},"feature_names":["x","y","bearing_t","speed_t","lag1","lag2","lag3","hora","minuto"],"feature_types":["int","int","int","int","float","float","float","int","int"],"gradient_booster":{"model":{"gbtree_model_param":{"num_parallel_tree":"1","num_trees":"52"},"iteration_indptr":[0,1,2,3,4,5,6,7,8,9,10,11,12,13,14,15,16,17,18,19,20,21,22,23,24,25,26,27,28,29,30,31,32,33,34,35,36,37,38,39,40,41,42,43,44,45,46,47,48,49,50,51,52],"tree_info":[0,0,0,0,0,0,0,0,0,0,0,0,0,0,0,0,0,0,0,0,0,0,0,0,0,0,0,0,0,0,0,0,0,0,0,0,0,0,0,0,0,0,0,0,0,0,0,0,0,0,0,0],"trees":[{"base_weights":[5.9783094E-2,-3.1983902E0,1.3545345E0,-3.2233956E0,1.3173836E-2,1.1278821E0,4.1654968E-1,-3.236193E0,2.03041E-1,2.2374065E-1,-1.7171758E-1,7.2417974E-1,4.2053398E-1,-9.8320085E-1,-2.0942166E0,1.113833E0,-8.319888E-1,1.5699416E-1,-8.1761557E-1,3.9440262E-1,1.5279853E-2],"categories":[],"categories_nodes":[],"categories_segments":[],"categories_sizes":[],"default_left":[0,0,0,0,0,0,0,0,0,0,0,0,0,0,0,0,0,0,0,0,0],"id":0,"left_children":[1,3,5,7,9,11,-1,13,-1,-1,-1,15,-1,-1,17,19,-1,-1,-1,-1,-1],"loss_changes":[5.674764E3,3.1084229E1,5.5931396E0,2.1393799E1,2.1261313E0,1.3276199E1,0E0,1.0386475E1,0E0,0E0,0E0,7.820114E1,0E0,0E0,2.8112595E1,1.0564129E1,0E0,0E0,0E0,0E0,0E0],"parents":[2147483647,0,0,1,1,2,2,3,3,4,4,5,5,7,7,11,11,14,14,15,15],"right_children":[2,4,6,8,10,12,-1,14,-1,-1,-1,16,-1,-1,18,20,-1,-1,-1,-1,-1],"split_conditions":[1E0,6.792402E6,6.663988E6,5.918642E6,1E1,5.880335E6,4.1654968E-1,5.897642E6,2.03041E-1,2.2374065E-1,-1.7171758E-1,5.862883E6,4.2053398E-1,-9.8320085E-1,6.4E1,5.823811E6,-8.319888E-1,1.5699416E-1,-8.1761557E-1,3.9440262E-1,1.5279853E-2],"split_indices":[4,1,1,0,7,0,0,0,0,0,0,0,0,0,2,0,0,0,0,0,0],"split_type":[0,0,0,0,0,0,0,0,0,0,0,0,0,0,0,0,0,0,0,0,0],"sum_hessian":[1.3432178E3,3.8154144E2,9.6167633E2,3.7862094E2,2.9204922E0,1.3017052E2,8.3150586E2,3.775779E2,1.0430329E0,1.2516395E0,1.6688527E0,5.4237713E1,7.59328E1,3.6255826E2,1.5019674E1,4.9439762E1,4.7979517E0,2.9204922E0,1.2099182E1,4.1304104E1,8.135657E0],"tree_param":{"num_deleted":"0","num_feature":"9","num_nodes":"21","size_leaf_vector":"1"}},{"base_weights":[1.13926806E-1,-1.7747672E0,1.2029803E0,-1.786589E0,2.0731889E-2,1.0430973E0,3.7703547E-1,-1.7930564E0,9.106527E-2,-1.8967283E-1,1.5834218E-1,7.913329E-1,3.793359E-1,-1.8511132E0,-1.4830078E0,1.0350418E0,-1.1874286E0,-5.5752194E-1,2.0566227E-2,4.6411565E-1,-5.021852E-1,3.6689588E-1,2.3096626E-1,1.682602E-1,-4.9088213E-1],"categories":[],"categories_nodes":[],"categories_segments":[],"categories_sizes":[],"default_left":[0,0,0,0,0,0,0,0,0,0,0,0,0,0,0,0,0,0,0,0,0,0,0,0,0],"id":1,"left_children":[1,3,5,7,9,11,-1,13,-1,-1,-1,15,-1,17,19,21,23,-1,-1,-1,-1,-1,-1,-1,-1],"loss_changes":[2.559137E3,9.872437E0,5.2475586E0,6.8049316E0,1.6177657E0,1.0220932E1,0E0,5.038086E0,0E0,0E0,0E0,4.886769E1,0E0,5.5637207E0,4.681601E1,3.272522E0,9.85858E0,0E0,0E0,0E0,0E0,0E0,0E0,0E0,0E0],"parents":[2147483647,0,0,1,1,2,2,3,3,4,4,5,5,7,7,11,11,13,13,14,14,15,15,16,16],"right_children":[2,4,6,8,10,12,-1,14,-1,-1,-1,16,-1,18,20,22,24,-1,-1,-1,-1,-1,-1,-1,-1],"split_conditions":[1E0,6.792402E6,6.700906E6,5.917912E6,9E0,5.892635E6,3.7703547E-1,6.72426E6,9.106527E-2,-1.8967283E-1,1.5834218E-1,5.859657E6,3.793359E-1,5.900074E6,1E1,1.2E1,3E0,-5.5752194E-1,2.0566227E-2,4.6411565E-1,-5.021852E-1,3.6689588E-1,2.3096626E-1,1.682602E-1,-4.9088213E-1],"split_indices":[4,1,1,0,8,0,0,1,0,0,0,0,0,0,7,7,7,0,0,0,0,0,0,0,0],"split_type":[0,0,0,0,0,0,0,0,0,0,0,0,0,0,0,0,0,0,0,0,0,0,0,0,0],"sum_hessian":[1.2421686E3,4.5403525E2,7.881333E2,4.511256E2,2.909629E0,2.0404588E2,5.8408746E2,4.499234E2,1.2021979E0,1.0777413E0,1.8318877E0,9.781747E1,1.0622842E2,3.7450436E2,7.541905E1,8.7560745E1,1.0256722E1,3.731706E2,1.3337461E0,4.018816E0,7.140024E1,4.890605E1,3.865469E1,1.9988055E0,8.257917E0],"tree_param":{"num_deleted":"0","num_feature":"9","num_nodes":"25","size_leaf_vector":"1"}},{"base_weights":[1.1590521E-1,-1.4001272E0,1.1053636E0,-1.435731E0,-8.7892616E-1,9.4409186E-1,3.5031867E-1,-1.448526E0,3.0251956E-1,-1.1099237E0,3.8211963E-1,6.98095E-1,3.5272533E-1,-4.436555E-1,-1.2341626E0,2.8650436E-1,-1.3570368E-1,4.9520525E-1,-1.4205223E0,9.6304816E-1,-5.5896497E-1,7.667553E-2,-4.1956303E-1,-1.756034E-1,3.164075E-1,-5.6773685E-2,-4.4013116E-1,3.441204E-1,1.9763431E-1,1.6780788E-1,-3.3018276E-1],"categories":[],"categories_nodes":[],"categories_segments":[],"categories_sizes":[],"default_left":[0,0,0,0,0,0,0,0,0,0,0,0,0,0,0,0,0,0,0,0,0,0,0,0,0,0,0,0,0,0,0],"id":2,"left_children":[1,3,5,7,9,11,-1,13,15,17,-1,19,-1,-1,21,-1,-1,23,25,27,29,-1,-1,-1,-1,-1,-1,-1,-1,-1,-1],"loss_changes":[1.5603688E3,6.1296387E0,5.0167236E0,9.06604E0,1.5830696E1,9.317291E0,0E0,3.7512207E-1,2.2392073E0,1.4151783E1,0E0,3.0736088E1,0E0,0E0,1.3591026E1,0E0,0E0,3.7068086E0,8.619232E-1,3.2752151E0,1.05609865E1,0E0,0E0,0E0,0E0,0E0,0E0,0E0,0E0,0E0,0E0],"parents":[2147483647,0,0,1,1,2,2,3,3,4,4,5,5,7,7,8,8,9,9,11,11,14,14,17,17,18,18,19,19,20,20],"right_children":[2,4,6,8,10,12,-1,14,16,18,-1,20,-1,-1,22,-1,-1,24,26,28,30,-1,-1,-1,-1,-1,-1,-1,-1,-1,-1],"split_conditions":[1E0,5.884108E6,6.710251E6,6.788118E6,1.6E1,5.892635E6,3.5031867E-1,6.714736E6,4.5E1,1.3E1,3.8211963E-1,5.830997E6,3.5272533E-1,-4.436555E-1,1.4E1,2.8650436E-1,-1.3570368E-1,1E0,6.70349E6,1.4E1,5E0,7.667553E-2,-4.1956303E-1,-1.756034E-1,3.164075E-1,-5.6773685E-2,-4.4013116E-1,3.441204E-1,1.9763431E-1,1.6780788E-1,-3.3018276E-1],"split_indices":[4,0,1,1,7,0,0,1,2,7,0,0,0,0,7,0,0,7,1,7,7,0,0,0,0,0,0,0,0,0,0],"split_type":[0,0,0,0,0,0,0,0,0,0,0,0,0,0,0,0,0,0,0,0,0,0,0,0,0,0,0,0,0,0,0],"sum_hessian":[1.0381984E3,4.0979733E2,6.2840106E2,3.8177155E2,2.8025795E1,1.8018858E2,4.4821246E2,3.7920447E2,2.567068E0,2.578925E1,2.2365463E0,8.9545815E1,9.064277E1,3.266314E2,5.2573067E1,1.3057362E0,1.2613319E0,4.03267E0,2.1756578E1,7.421649E1,1.5329324E1,5.108913E0,4.7464153E1,1.2989746E0,2.7336955E0,1.0558931E0,2.0700686E1,4.431582E1,2.9900671E1,4.931011E0,1.0398313E1],"tree_param":{"num_deleted":"0","num_feature":"9","num_nodes":"31","size_leaf_vector":"1"}},{"base_weights":[1.131602E-1,-1.2090816E0,1.0345144E0,-1.2774277E0,-9.124933E-1,8.595674E-1,1.1049634E0,-3.8803032E-1,2.4733278E-1,3.5508585E-1,-1.0792027E0,6.0919243E-1,3.3482432E-1,7.008024E-1,3.3390826E-1,1.3908146E-1,-1.1210625E0,8.6221755E-1,-4.0650266E-1,8.6531574E-1,-2.9551156E-2,-1.0743838E-1,-3.501327E-1,3.232227E-1,1.634067E-1,1.23368554E-1,-2.5198597E-1,2.885608E-1,2.8260706E-2],"categories":[],"categories_nodes":[],"categories_segments":[],"categories_sizes":[],"default_left":[0,0,0,0,0,0,0,0,0,0,0,0,0,0,0,0,0,0,0,0,0,0,0,0,0,0,0,0,0],"id":3,"left_children":[1,3,5,7,9,11,13,-1,-1,-1,15,17,-1,19,-1,-1,21,23,25,27,-1,-1,-1,-1,-1,-1,-1,-1,-1],"loss_changes":[1.0230065E3,5.6056213E0,4.953003E0,1.0448944E1,2.5154068E1,8.587318E0,1.756897E-1,0E0,0E0,0E0,4.7115555E0,2.0128056E1,0E0,1.446353E0,0E0,0E0,1.6271515E0,3.478218E0,6.0286274E0,4.2223406E-1,0E0,0E0,0E0,0E0,0E0,0E0,0E0,0E0,0E0],"parents":[2147483647,0,0,1,1,2,2,3,3,4,4,5,5,6,6,10,10,11,11,13,13,16,16,17,17,18,18,19,19],"right_children":[2,4,6,8,10,12,14,-1,-1,-1,16,18,-1,20,-1,-1,22,24,26,28,-1,-1,-1,-1,-1,-1,-1,-1,-1],"split_conditions":[1E0,6.714736E6,6.710251E6,5.900818E6,1E1,5.892635E6,3E0,-3.8803032E-1,2.4733278E-1,3.5508585E-1,5.668941E6,5.830997E6,3.3482432E-1,1.9E1,3.3390826E-1,1.3908146E-1,3E0,1.4E1,1.1E1,1.2E1,-2.9551156E-2,-1.0743838E-1,-3.501327E-1,3.232227E-1,1.634067E-1,1.23368554E-1,-2.5198597E-1,2.885608E-1,2.8260706E-2],"split_indices":[4,1,1,0,7,0,2,0,0,0,0,0,0,7,0,0,2,7,7,3,0,0,0,0,0,0,0,0,0],"split_type":[0,0,0,0,0,0,0,0,0,0,0,0,0,0,0,0,0,0,0,0,0,0,0,0,0,0,0,0,0],"sum_hessian":[8.3771985E2,3.4384488E2,4.93875E2,2.7648685E2,6.7358025E1,1.4598036E2,3.4789462E2,2.7482614E2,1.6607132E0,4.468891E0,6.2889133E1,7.5779274E1,7.020109E1,8.767821E0,3.391268E2,1.3320068E0,6.155713E1,6.0866154E1,1.4913123E1,7.306518E0,1.4613036E0,4.126993E0,5.7430134E1,3.4665234E1,2.6200922E1,5.1042333E0,9.808889E0,6.158351E0,1.1481671E0],"tree_param":{"num_deleted":"0","num_feature":"9","num_nodes":"29","size_leaf_vector":"1"}},{"base_weights":[1.1094499E-1,-1.0855709E0,9.7711015E-1,-1.1637933E0,-7.685024E-1,7.8442824E-1,1.0586665E0,-3.5404167E-1,2.1992405E-1,3.1167382E-1,-9.1504806E-1,5.2910733E-1,3.2208538E-1,6.181239E-1,3.2058164E-1,1.1318447E-1,-9.570639E-1,7.6936007E-1,-3.0288026E-1,-2.7735466E-2,7.976838E-1,-3.246736E-1,-1.51771E-1,3.0676925E-1,1.3294555E-1,-2.879023E-1,4.8275545E-2,2.721431E-1,9.877611E-3],"categories":[],"categories_nodes":[],"categories_segments":[],"categories_sizes":[],"default_left":[0,0,0,0,0,0,0,0,0,0,0,0,0,0,0,0,0,0,0,0,0,0,0,0,0,0,0,0,0],"id":4,"left_children":[1,3,5,7,9,11,13,-1,-1,-1,15,17,-1,19,-1,-1,21,23,25,-1,27,-1,-1,-1,-1,-1,-1,-1,-1],"loss_changes":[6.91133E2,5.857788E0,5.064026E0,7.8061523E0,1.6462711E1,8.077644E0,3.466797E-1,0E0,0E0,0E0,3.3945503E0,1.3371563E1,0E0,1.2312648E0,0E0,0E0,2.3112907E0,3.628975E0,4.894928E0,0E0,4.635234E-1,0E0,0E0,0E0,0E0,0E0,0E0,0E0,0E0],"parents":[2147483647,0,0,1,1,2,2,3,3,4,4,5,5,6,6,10,10,11,11,13,13,16,16,17,17,18,18,20,20],"right_children":[2,4,6,8,10,12,14,-1,-1,-1,16,18,-1,20,-1,-1,22,24,26,-1,28,-1,-1,-1,-1,-1,-1,-1,-1],"split_conditions":[1E0,6.714736E6,6.710251E6,5.900818E6,1E1,5.892635E6,3E0,-3.5404167E-1,2.1992405E-1,3.1167382E-1,5.668941E6,5.830997E6,3.2208538E-1,5.762073E6,3.2058164E-1,1.1318447E-1,2.25E2,1.4E1,1E0,-2.7735466E-2,3.1E1,-3.246736E-1,-1.51771E-1,3.0676925E-1,1.3294555E-1,-2.879023E-1,4.8275545E-2,2.721431E-1,9.877611E-3],"split_indices":[4,1,1,0,7,0,2,0,0,0,0,0,0,0,0,0,2,7,3,0,3,0,0,0,0,0,0,0,0],"split_type":[0,0,0,0,0,0,0,0,0,0,0,0,0,0,0,0,0,0,0,0,0,0,0,0,0,0,0,0,0],"sum_hessian":[6.6485895E2,2.7903406E2,3.858249E2,2.2142221E2,5.761183E1,1.1826377E2,2.675611E2,2.1995738E2,1.4648285E0,3.8129704E0,5.3798862E1,6.449637E1,5.3767406E1,7.519377E0,2.6004172E2,1.367816E0,5.2431046E1,5.019659E1,1.4299781E1,1.5023412E0,6.0170364E0,3.9774544E1,1.2656502E1,2.688618E1,2.331041E1,5.5652194E0,8.734561E0,4.986391E0,1.0306453E0],"tree_param":{"num_deleted":"0","num_feature":"9","num_nodes":"29","size_leaf_vector":"1"}},{"base_weights":[1.0807571E-1,-9.933277E-1,9.236763E-1,-1.0854628E0,-6.505247E-1,7.148281E-1,1.0250529E0,-1.1027623E0,1.9717868E-1,2.7888015E-1,-7.801448E-1,4.4494176E-1,3.1308424E-1,4.4552308E-1,3.1147873E-1,-7.8003055E-1,-3.3696896E-1,-9.730002E-4,-8.611302E-1,6.9021696E-1,-2.9026338E-1,-2.0719972E-1,2.4754944E-1,-2.0606753E-3,-2.8697532E-1,-1.529819E-1,2.5806406E-1,-3.138075E-1,-1.075392E-1,-1.7185189E-1,2.2420572E-1,1.2924981E-1,-1.8792574E-1,-2.541926E-1,1.5030906E-1],"categories":[],"categories_nodes":[],"categories_segments":[],"categories_sizes":[],"default_left":[0,0,0,0,0,0,0,0,0,0,0,0,0,0,0,0,0,0,0,0,0,0,0,0,0,0,0,0,0,0,0,0,0,0,0],"id":5,"left_children":[1,3,5,7,9,11,13,15,-1,-1,17,19,-1,21,-1,23,-1,25,27,29,31,33,-1,-1,-1,-1,-1,-1,-1,-1,-1,-1,-1,-1,-1],"loss_changes":[4.73083E2,6.1970367E0,5.4992676E0,6.0414124E0,1.0989874E1,8.482147E0,9.2826843E-1,8.01239E-2,0E0,0E0,2.8778744E0,1.0735867E1,0E0,1.8189836E0,0E0,1.7967138E0,0E0,2.83245E0,3.4294739E0,3.6237774E0,3.9646728E0,1.8447541E0,0E0,0E0,0E0,0E0,0E0,0E0,0E0,0E0,0E0,0E0,0E0,0E0,0E0],"parents":[2147483647,0,0,1,1,2,2,3,3,4,4,5,5,6,6,7,7,10,10,11,11,13,13,15,15,17,17,18,18,19,19,20,20,21,21],"right_children":[2,4,6,8,10,12,14,16,-1,-1,18,20,-1,22,-1,24,-1,26,28,30,32,34,-1,-1,-1,-1,-1,-1,-1,-1,-1,-1,-1,-1,-1],"split_conditions":[1E0,6.714736E6,6.714736E6,5.900818E6,1E1,5.894673E6,3E0,5E0,1.9717868E-1,2.7888015E-1,7E0,5.830997E6,3.1308424E-1,6.756547E6,3.1147873E-1,3.1E1,-3.3696896E-1,6.756803E6,2.25E2,1E0,5E0,2.6E1,2.4754944E-1,-2.0606753E-3,-2.8697532E-1,-1.529819E-1,2.5806406E-1,-3.138075E-1,-1.075392E-1,-1.7185189E-1,2.2420572E-1,1.2924981E-1,-1.8792574E-1,-2.541926E-1,1.5030906E-1],"split_indices":[4,1,1,0,7,0,2,7,0,0,2,0,0,1,0,8,0,1,2,6,7,8,0,0,0,0,0,0,0,0,0,0,0,0,0],"split_type":[0,0,0,0,0,0,0,0,0,0,0,0,0,0,0,0,0,0,0,0,0,0,0,0,0,0,0,0,0,0,0,0,0,0,0],"sum_hessian":[5.246258E2,2.2306027E2,3.0156555E2,1.7387086E2,4.9189404E1,1.01500244E2,2.0006532E2,1.7258229E2,1.2885686E0,3.2027917E0,4.598661E1,5.7202564E1,4.4297676E1,5.4011636E0,1.9466415E2,1.2916235E1,1.5966606E2,4.541263E0,4.144535E1,4.304075E1,1.4161816E1,2.0563948E0,3.3447688E0,2.6995795E0,1.0216656E1,3.183674E0,1.3575889E0,2.9364403E1,1.2080947E1,1.3963474E0,4.16444E1,4.318648E0,9.843167E0,1.0511613E0,1.0052336E0],"tree_param":{"num_deleted":"0","num_feature":"9","num_nodes":"35","size_leaf_vector":"1"}},{"base_weights":[1.03525095E-1,-9.186886E-1,8.730098E-1,-1.0258923E0,-5.54235E-1,6.429E-1,9.929319E-1,-1.0445987E0,1.7779769E-1,2.5213146E-1,-6.7031676E-1,3.730471E-1,3.0523843E-1,3.8316065E-1,3.029229E-1,-6.8926597E-1,-3.2083213E-1,-3.765338E-2,-7.6923275E-1,8.5814786E-1,3.130892E-2,-1.5112214E-1,2.2874355E-1,-2.4656773E-1,5.3845674E-2,3.2098275E-1,-1.3499537E-1,-2.7275848E-1,-8.05421E-2,-7.114808E-2,2.836607E-1,-1.6115038E-1,1.2239132E-1,-2.4155794E-1,1.571423E-1],"categories":[],"categories_nodes":[],"categories_segments":[],"categories_sizes":[],"default_left":[0,0,0,0,0,0,0,0,0,0,0,0,0,0,0,0,0,0,0,0,0,0,0,0,0,0,0,0,0,0,0,0,0,0,0],"id":6,"left_children":[1,3,5,7,9,11,13,15,-1,-1,17,19,-1,21,-1,23,-1,25,27,29,31,33,-1,-1,-1,-1,-1,-1,-1,-1,-1,-1,-1,-1,-1],"loss_changes":[3.2652643E2,6.2389374E0,5.7333984E0,4.7932434E0,7.4930725E0,7.998188E0,1.0480499E0,2.807312E-1,0E0,0E0,2.4082165E0,8.290784E0,0E0,1.3703147E0,0E0,1.5843415E0,0E0,3.4465194E0,2.063572E0,2.2859898E0,6.8248134E0,1.849813E0,0E0,0E0,0E0,0E0,0E0,0E0,0E0,0E0,0E0,0E0,0E0,0E0,0E0],"parents":[2147483647,0,0,1,1,2,2,3,3,4,4,5,5,6,6,7,7,10,10,11,11,13,13,15,15,17,17,18,18,19,19,20,20,21,21],"right_children":[2,4,6,8,10,12,14,16,-1,-1,18,20,-1,22,-1,24,-1,26,28,30,32,34,-1,-1,-1,-1,-1,-1,-1,-1,-1,-1,-1,-1,-1],"split_conditions":[1E0,6.714736E6,6.714736E6,5.900818E6,1E1,5.894673E6,3E0,5E0,1.7779769E-1,2.5213146E-1,5.753581E6,1.1E1,3.0523843E-1,6.756547E6,3.029229E-1,5.859657E6,-3.2083213E-1,1E0,2.39E2,1E0,1.7E1,2.4E1,2.2874355E-1,-2.4656773E-1,5.3845674E-2,3.2098275E-1,-1.3499537E-1,-2.7275848E-1,-8.05421E-2,-7.114808E-2,2.836607E-1,-1.6115038E-1,1.2239132E-1,-2.4155794E-1,1.571423E-1],"split_indices":[4,1,1,0,7,0,2,7,0,0,0,7,0,1,0,0,0,3,2,7,7,8,0,0,0,0,0,0,0,0,0,0,0,0,0],"split_type":[0,0,0,0,0,0,0,0,0,0,0,0,0,0,0,0,0,0,0,0,0,0,0,0,0,0,0,0,0,0,0,0,0,0,0],"sum_hessian":[4.1310904E2,1.7727977E2,2.3582927E2,1.3537123E2,4.190854E1,8.3260895E1,1.5256839E2,1.3423618E2,1.1350482E0,2.6744645E0,3.9234074E1,4.971014E1,3.355075E1,4.891316E0,1.4767706E2,1.0912776E1,1.233234E2,5.6281633E0,3.360591E1,1.980004E1,2.9910099E1,2.1711445E0,2.7201712E0,9.614102E0,1.2986739E0,1.0283756E0,4.5997877E0,2.5471342E1,8.134569E0,1.251809E0,1.8548231E1,1.1644316E1,1.8265783E1,1.0798389E0,1.0913056E0],"tree_param":{"num_deleted":"0","num_feature":"9","num_nodes":"35","size_leaf_vector":"1"}},{"base_weights":[1.0000911E-1,-8.4793127E-1,8.182249E-1,-9.749673E-1,-4.613729E-1,5.677816E-1,9.622211E-1,-9.9550915E-1,1.6100807E-1,2.291451E-1,-5.642411E-1,3.076468E-1,2.982823E-1,5.679699E-1,3.0275238E-1,-5.982365E-1,-3.0798653E-1,1.587763E-1,-6.6004586E-1,7.814885E-1,2.462996E-2,8.499939E-1,-1.9614059E-1,2.5595544E-2,-2.4629332E-1,-8.765273E-2,2.515826E-1,-2.6538724E-1,-5.8404017E-2,-5.6992006E-2,2.647742E-1,2.2534285E-1,-4.878863E-2,2.773334E-1,4.8210867E-2,1.9567786E-1,-3.1518975E-1],"categories":[],"categories_nodes":[],"categories_segments":[],"categories_sizes":[],"default_left":[0,0,0,0,0,0,0,0,0,0,0,0,0,0,0,0,0,0,0,0,0,0,0,0,0,0,0,0,0,0,0,0,0,0,0,0,0],"id":7,"left_children":[1,3,5,7,9,11,13,15,-1,-1,17,19,-1,21,-1,23,-1,25,27,29,31,33,35,-1,-1,-1,-1,-1,-1,-1,-1,-1,-1,-1,-1,-1,-1],"loss_changes":[2.2443974E2,6.384453E0,6.064148E0,3.8672562E0,5.104515E0,7.4587936E0,1.4421082E0,5.193405E-1,0E0,0E0,2.5797462E0,6.041353E0,0E0,3.4659467E0,0E0,1.7034922E0,0E0,1.7650125E0,2.983345E0,1.9024601E0,4.239887E0,3.1994534E-1,4.1776643E0,0E0,0E0,0E0,0E0,0E0,0E0,0E0,0E0,0E0,0E0,0E0,0E0,0E0,0E0],"parents":[2147483647,0,0,1,1,2,2,3,3,4,4,5,5,6,6,7,7,10,10,11,11,13,13,15,15,17,17,18,18,19,19,20,20,21,21,22,22],"right_children":[2,4,6,8,10,12,14,16,-1,-1,18,20,-1,22,-1,24,-1,26,28,30,32,34,36,-1,-1,-1,-1,-1,-1,-1,-1,-1,-1,-1,-1,-1,-1],"split_conditions":[1E0,6.714736E6,6.714736E6,5.900818E6,1E1,5.894673E6,5.785189E6,5E0,1.6100807E-1,2.291451E-1,7E0,1.1E1,2.982823E-1,5.753581E6,3.0275238E-1,3.1E1,-3.0798653E-1,6.756803E6,2.25E2,1E0,5.593188E6,2.281E3,1.6E1,2.5595544E-2,-2.4629332E-1,-8.765273E-2,2.515826E-1,-2.6538724E-1,-5.8404017E-2,-5.6992006E-2,2.647742E-1,2.2534285E-1,-4.878863E-2,2.773334E-1,4.8210867E-2,1.9567786E-1,-3.1518975E-1],"split_indices":[4,1,1,0,7,0,0,7,0,0,2,7,0,0,0,8,0,1,2,7,0,3,7,0,0,0,0,0,0,0,0,0,0,0,0,0,0],"split_type":[0,0,0,0,0,0,0,0,0,0,0,0,0,0,0,0,0,0,0,0,0,0,0,0,0,0,0,0,0,0,0,0,0,0,0,0,0],"sum_hessian":[3.2764343E2,1.410966E2,1.8654683E2,1.0485641E2,3.62402E1,7.0159836E1,1.16387E2,1.0385276E2,1.0036476E0,2.2341E0,3.40061E1,4.4794006E1,2.536583E1,1.40064125E1,1.02380585E2,9.245133E0,9.460763E1,3.7797883E0,3.022631E1,1.5959372E1,2.8834633E1,1.0243964E1,3.762448E0,2.3134766E0,6.9316564E0,2.5268114E0,1.2529769E0,1.9634974E1,1.0591338E1,1.328126E0,1.4631246E1,5.401407E0,2.3433226E1,8.806535E0,1.4374293E0,1.9479885E0,1.8144597E0],"tree_param":{"num_deleted":"0","num_feature":"9","num_nodes":"37","size_leaf_vector":"1"}},{"base_weights":[9.728829E-2,-7.801388E-1,7.5918067E-1,-9.2747265E-1,-3.813996E-1,5.3806543E-1,9.699669E-1,-9.497891E-1,1.0064522E-1,2.0875172E-1,-4.7302464E-1,9.120866E-1,2.7771437E-1,3.6891738E-1,2.9447722E-1,-5.1646113E-1,-2.9661325E-1,1.2325256E-1,-5.8698946E-1,2.8222427E-1,5.3564506E-3,2.229339E-2,7.690737E-1,-0E0,1.5372254E-1,-2.5621682E-1,-3.90839E-3,2.6903787E-1,-6.95011E-2,-2.3514287E-1,-4.8199784E-2,7.01284E-2,-1.8242571E-1,9.0996824E-2,2.780245E-1],"categories":[],"categories_nodes":[],"categories_segments":[],"categories_sizes":[],"default_left":[0,0,0,0,0,0,0,0,0,0,0,0,0,0,0,0,0,0,0,0,0,0,0,0,0,0,0,0,0,0,0,0,0,0,0],"id":8,"left_children":[1,3,5,7,9,11,13,15,-1,-1,17,19,21,23,-1,25,-1,27,29,-1,-1,31,33,-1,-1,-1,-1,-1,-1,-1,-1,-1,-1,-1,-1],"loss_changes":[1.5379211E2,6.2042465E0,6.362175E0,2.6984406E0,3.524651E0,7.042101E0,3.237152E-2,7.078018E-1,0E0,0E0,2.2067165E0,6.7297554E-1,5.738081E0,1.3851073E-1,0E0,1.4309182E0,0E0,1.8161247E0,1.9705124E0,0E0,0E0,4.3373156E0,7.51524E-1,0E0,0E0,0E0,0E0,0E0,0E0,0E0,0E0,0E0,0E0,0E0,0E0],"parents":[2147483647,0,0,1,1,2,2,3,3,4,4,5,5,6,6,7,7,10,10,11,11,12,12,13,13,15,15,17,17,18,18,21,21,22,22],"right_children":[2,4,6,8,10,12,14,16,-1,-1,18,20,22,24,-1,26,-1,28,30,-1,-1,32,34,-1,-1,-1,-1,-1,-1,-1,-1,-1,-1,-1,-1],"split_conditions":[1E0,6.714736E6,5.880335E6,5.900074E6,1E1,1.1E1,1E0,5E0,1.0064522E-1,2.0875172E-1,5.753581E6,4E3,6.756547E6,6.735726E6,2.9447722E-1,6.644646E6,-2.9661325E-1,1.8E1,5.884108E6,2.8222427E-1,5.3564506E-3,5.847389E6,5.785189E6,-0E0,1.5372254E-1,-2.5621682E-1,-3.90839E-3,2.6903787E-1,-6.95011E-2,-2.3514287E-1,-4.8199784E-2,7.01284E-2,-1.8242571E-1,9.0996824E-2,2.780245E-1],"split_indices":[4,1,0,0,7,7,7,7,0,0,0,3,1,1,0,1,0,3,0,0,0,0,0,0,0,0,0,0,0,0,0,0,0,0,0],"split_type":[0,0,0,0,0,0,0,0,0,0,0,0,0,0,0,0,0,0,0,0,0,0,0,0,0,0,0,0,0,0,0,0,0,0,0],"sum_hessian":[2.627946E2,1.1285734E2,1.4993726E2,8.125636E1,3.1600975E1,7.514112E1,7.479614E1,8.0166954E1,1.0894043E0,1.8746644E0,2.9726309E1,2.9653461E1,4.5487656E1,2.203393E0,7.259275E1,7.9949694E0,7.217199E1,4.6159825E0,2.5110327E1,2.8573803E1,1.0796602E0,3.0751263E1,1.4736394E1,1.0153701E0,1.188023E0,4.249929E0,3.7450402E0,1.0602455E0,3.5557373E0,1.6445065E1,8.665263E0,2.3616606E1,7.1346555E0,4.6269393E0,1.0109455E1],"tree_param":{"num_deleted":"0","num_feature":"9","num_nodes":"35","size_leaf_vector":"1"}},{"base_weights":[9.21742E-2,-7.137985E-1,6.9672585E-1,-8.731343E-1,-3.3421156E-1,4.583635E-1,9.471957E-1,-3.124685E-1,-9.420578E-1,2.049687E-1,-4.3766218E-1,1.7914294E-1,7.6894933E-1,3.2739884E-1,2.8852317E-1,-2.3731135E-1,1.4593615E-1,-2.8535992E-1,-7.000207E-2,1.6161819E-1,-5.32283E-1,5.579568E-1,-2.5262243E-1,4.224521E-1,2.8833446E-1,-0E0,1.3913271E-1,-2.281275E-1,5.132878E-1,-1.455478E-1,3.0814478E-1,1.670827E-2,-2.0597376E-1,2.1265015E-1,-3.882139E-2,-2.5457926E-2,-4.0801167E-1,2.503222E-1,-1.10623755E-1],"categories":[],"categories_nodes":[],"categories_segments":[],"categories_sizes":[],"default_left":[0,0,0,0,0,0,0,0,0,0,0,0,0,0,0,0,0,0,0,0,0,0,0,0,0,0,0,0,0,0,0,0,0,0,0,0,0,0,0],"id":9,"left_children":[1,3,5,7,9,11,13,15,17,-1,19,21,23,25,-1,-1,27,-1,-1,29,31,33,35,37,-1,-1,-1,-1,-1,-1,-1,-1,-1,-1,-1,-1,-1,-1,-1],"loss_changes":[1.0459562E2,5.151314E0,6.7480927E0,2.0528908E0,3.3272574E0,5.4033766E0,8.519745E-2,2.079811E0,2.4543762E-2,0E0,1.6555686E0,6.0098104E0,1.4726734E0,1.0694307E-1,0E0,0E0,8.71659E0,0E0,0E0,2.9642951E0,2.2530403E0,2.1666408E0,2.944272E0,4.518695E0,0E0,0E0,0E0,0E0,0E0,0E0,0E0,0E0,0E0,0E0,0E0,0E0,0E0,0E0,0E0],"parents":[2147483647,0,0,1,1,2,2,3,3,4,4,5,5,6,6,7,7,8,8,10,10,11,11,12,12,13,13,16,16,19,19,20,20,21,21,22,22,23,23],"right_children":[2,4,6,8,10,12,14,16,18,-1,20,22,24,26,-1,-1,28,-1,-1,30,32,34,36,38,-1,-1,-1,-1,-1,-1,-1,-1,-1,-1,-1,-1,-1,-1,-1],"split_conditions":[1E0,6.71141E6,5.880335E6,5E0,1.3E1,6.710251E6,1E0,2E0,5.883187E6,2.049687E-1,6E0,5.6905E6,5.785189E6,1.19E3,2.8852317E-1,-2.3731135E-1,5.579178E6,-2.8535992E-1,-7.000207E-2,5E0,5.1E1,2.1E1,3.252E3,5.753581E6,2.8833446E-1,-0E0,1.3913271E-1,-2.281275E-1,5.132878E-1,-1.455478E-1,3.0814478E-1,1.670827E-2,-2.0597376E-1,2.1265015E-1,-3.882139E-2,-2.5457926E-2,-4.0801167E-1,2.503222E-1,-1.10623755E-1],"split_indices":[5,1,0,7,7,1,7,7,0,0,8,0,0,3,0,0,0,0,0,8,2,7,3,0,0,0,0,0,0,0,0,0,0,0,0,0,0,0,0],"split_type":[0,0,0,0,0,0,0,0,0,0,0,0,0,0,0,0,0,0,0,0,0,0,0,0,0,0,0,0,0,0,0,0,0,0,0,0,0,0,0],"sum_hessian":[2.126471E2,9.099233E1,1.2165476E2,6.2988533E1,2.8003796E1,6.3988594E1,5.7666164E1,7.660197E0,5.532834E1,1.9780974E0,2.60257E1,3.4695587E1,2.9293009E1,2.019223E0,5.5646942E1,3.4993894E0,4.160807E0,5.414665E1,1.18169E0,3.3082154E0,2.2717484E1,1.8448734E1,1.6246853E1,1.1776799E1,1.7516209E1,1.0173737E0,1.0018492E0,2.919966E0,1.2408414E0,2.0787656E0,1.22945E0,4.720394E0,1.799709E1,1.5221773E1,3.2269602E0,1.5122823E1,1.1240299E0,7.791669E0,3.985131E0],"tree_param":{"num_deleted":"0","num_feature":"9","num_nodes":"39","size_leaf_vector":"1"}},{"base_weights":[8.556877E-2,-6.379967E-1,6.338801E-1,-8.3083487E-1,-2.378558E-1,3.6906296E-1,8.8247657E-1,-8.582011E-1,6.0879353E-2,3.4898892E-2,-5.422936E-1,1.47193E-1,2.8094402E-1,3.8947365E-1,9.67395E-1,-4.5365876E-1,-9.3334055E-1,9.968577E-1,-2.930946E-1,-8.5424936E-1,2.5244793E-1,3.4464952E-1,-2.7435154E-1,2.475659E-1,-2.0314601E-1,2.9683393E-1,8.510544E-2,-2.3109393E-1,9.7099036E-2,-2.8619713E-1,-8.9012295E-2,4.5923185E-1,1.8129346E-3,-1.6616586E-1,2.5699103E-1,-2.862101E-1,-0E0,-1.3648416E-1,1.9223903E-1,2.4855912E-1,8.139034E-3,-2.2309439E-1,7.652281E-2,-3.8950768E-1,1.35157E-1],"categories":[],"categories_nodes":[],"categories_segments":[],"categories_sizes":[],"default_left":[0,0,0,0,0,0,0,0,0,0,0,0,0,0,0,0,0,0,0,0,0,0,0,0,0,0,0,0,0,0,0,0,0,0,0,0,0,0,0,0,0,0,0,0,0],"id":10,"left_children":[1,3,5,7,9,11,13,15,-1,17,19,21,-1,23,25,27,29,31,33,35,37,39,41,-1,43,-1,-1,-1,-1,-1,-1,-1,-1,-1,-1,-1,-1,-1,-1,-1,-1,-1,-1,-1,-1],"loss_changes":[7.0615814E1,5.614891E0,6.2152977E0,1.688034E0,2.2715597E0,6.1672144E0,1.6358604E0,9.6264267E-1,0E0,5.0172377E0,3.4404542E0,3.2592869E0,0E0,2.653902E0,2.3921204E-1,2.7582922E0,1.328392E-1,1.982657E0,3.9513626E0,7.59799E-1,1.4857827E0,3.954201E0,3.343443E0,0E0,4.0221705E0,0E0,0E0,0E0,0E0,0E0,0E0,0E0,0E0,0E0,0E0,0E0,0E0,0E0,0E0,0E0,0E0,0E0,0E0,0E0,0E0],"parents":[2147483647,0,0,1,1,2,2,3,3,4,4,5,5,6,6,7,7,9,9,10,10,11,11,13,13,14,14,15,15,16,16,17,17,18,18,19,19,20,20,21,21,22,22,24,24],"right_children":[2,4,6,8,10,12,14,16,-1,18,20,22,-1,24,26,28,30,32,34,36,38,40,42,-1,44,-1,-1,-1,-1,-1,-1,-1,-1,-1,-1,-1,-1,-1,-1,-1,-1,-1,-1,-1,-1],"split_conditions":[1E0,6.714736E6,6.732074E6,5.899256E6,2.6E1,5.894673E6,5.785189E6,9E0,6.0879353E-2,1.4E1,5E1,5.830997E6,2.8094402E-1,5.753581E6,5.914791E6,6.657208E6,3.15E2,5.861162E6,2.6E2,6.789259E6,1.5E1,1.4E1,1.59E2,2.475659E-1,2E1,2.9683393E-1,8.510544E-2,-2.3109393E-1,9.7099036E-2,-2.8619713E-1,-8.9012295E-2,4.5923185E-1,1.8129346E-3,-1.6616586E-1,2.5699103E-1,-2.862101E-1,-0E0,-1.3648416E-1,1.9223903E-1,2.4855912E-1,8.139034E-3,-2.2309439E-1,7.652281E-2,-3.8950768E-1,1.35157E-1],"split_indices":[4,1,1,0,8,0,0,7,0,7,8,0,0,0,0,1,2,0,2,1,7,7,2,0,8,0,0,0,0,0,0,0,0,0,0,0,0,0,0,0,0,0,0,0,0],"split_type":[0,0,0,0,0,0,0,0,0,0,0,0,0,0,0,0,0,0,0,0,0,0,0,0,0,0,0,0,0,0,0,0,0,0,0,0,0,0,0,0,0,0,0,0,0],"sum_hessian":[1.7597221E2,7.571321E1,1.00259E2,5.0196133E1,2.5517078E1,4.994354E1,5.0315464E1,4.916128E1,1.0348523E0,1.3752608E1,1.176447E1,3.6936405E1,1.30071335E1,8.387133E0,4.1928333E1,9.011703E0,4.014958E1,3.055851E0,1.0696757E1,8.484891E0,3.2795794E0,2.5439754E1,1.1496653E1,4.704338E0,3.6827946E0,4.0043396E1,1.8849361E0,6.501058E0,2.510644E0,3.8253227E1,1.8963516E0,1.5660635E0,1.4897873E0,9.212358E0,1.4843991E0,7.439343E0,1.0455478E0,1.0102929E0,2.2692864E0,9.316949E0,1.6122807E1,5.980055E0,5.5165973E0,1.0650461E0,2.6177483E0],"tree_param":{"num_deleted":"0","num_feature":"9","num_nodes":"45","size_leaf_vector":"1"}},{"base_weights":[8.095463E-2,-5.6390786E-1,5.7061076E-1,-7.7479607E-1,-1.8132262E-1,3.1442907E-1,8.439274E-1,-8.0575067E-1,5.2211463E-2,3.6235574E-1,-3.1943572E-1,1.203928E-1,2.7304646E-1,3.2802674E-1,9.4808745E-1,-3.8240868E-1,-8.965659E-1,-1.8314183E-2,2.347458E-1,-7.177763E-1,6.013682E-3,1.9047955E-1,-2.3545377E-1,-3.1602132E-1,6.695073E-1,2.9295447E-1,7.2848976E-2,-2.1750818E-1,8.050518E-2,-2.7658287E-1,-7.623792E-2,-1.4001371E-1,1.5537181E-1,9.434591E-2,-2.774186E-1,-1.4122379E-1,4.8236534E-1,1.7984863E-1,1.2068685E-2,1.4786074E-1,-2.8250945E-1,2.3902346E-1,-0E0],"categories":[],"categories_nodes":[],"categories_segments":[],"categories_sizes":[],"default_left":[0,0,0,0,0,0,0,0,0,0,0,0,0,0,0,0,0,0,0,0,0,0,0,0,0,0,0,0,0,0,0,0,0,0,0,0,0,0,0,0,0,0,0],"id":11,"left_children":[1,3,5,7,9,11,13,15,-1,17,19,21,-1,23,25,27,29,31,-1,33,35,37,-1,39,41,-1,-1,-1,-1,-1,-1,-1,-1,-1,-1,-1,-1,-1,-1,-1,-1,-1,-1],"loss_changes":[4.704006E1,4.9494457E0,5.5481167E0,1.4063835E0,1.9370533E0,5.0460963E0,1.7209415E0,1.0649357E0,0E0,9.2989033E-1,2.6767764E0,2.3484216E0,0E0,2.1034038E0,2.9746437E-1,2.2454534E0,1.6899681E-1,1.1033759E0,0E0,2.3105702E0,9.956174E0,1.9979832E0,0E0,2.2817514E0,4.5024514E-1,0E0,0E0,0E0,0E0,0E0,0E0,0E0,0E0,0E0,0E0,0E0,0E0,0E0,0E0,0E0,0E0,0E0,0E0],"parents":[2147483647,0,0,1,1,2,2,3,3,4,4,5,5,6,6,7,7,9,9,10,10,11,11,13,13,14,14,15,15,16,16,17,17,19,19,20,20,21,21,23,23,24,24],"right_children":[2,4,6,8,10,12,14,16,-1,18,20,22,-1,24,26,28,30,32,-1,34,36,38,-1,40,42,-1,-1,-1,-1,-1,-1,-1,-1,-1,-1,-1,-1,-1,-1,-1,-1,-1,-1],"split_conditions":[1E0,6.714736E6,6.732074E6,5.899256E6,5.753581E6,5.894673E6,5.785189E6,9E0,5.2211463E-2,1.9E1,5.785189E6,3.952E3,2.7304646E-1,9.7E1,5.914791E6,3E0,3.15E2,5.728366E6,2.347458E-1,1.6E1,1.6E1,1.1E1,-2.3545377E-1,1.9E1,6.772186E6,2.9295447E-1,7.2848976E-2,-2.1750818E-1,8.050518E-2,-2.7658287E-1,-7.623792E-2,-1.4001371E-1,1.5537181E-1,9.434591E-2,-2.774186E-1,-1.4122379E-1,4.8236534E-1,1.7984863E-1,1.2068685E-2,1.4786074E-1,-2.8250945E-1,2.3902346E-1,-0E0],"split_indices":[4,1,1,0,0,0,0,7,0,7,0,3,0,2,0,7,2,0,0,7,7,7,0,7,1,0,0,0,0,0,0,0,0,0,0,0,0,0,0,0,0,0,0],"split_type":[0,0,0,0,0,0,0,0,0,0,0,0,0,0,0,0,0,0,0,0,0,0,0,0,0,0,0,0,0,0,0,0,0,0,0,0,0,0,0,0,0,0,0],"sum_hessian":[1.4695253E2,6.3270847E1,8.368169E1,3.9958454E1,2.3312391E1,4.449371E1,3.9187977E1,3.894414E1,1.0143144E0,4.2469053E0,1.9065485E1,3.4595444E1,9.898267E0,7.4412193E0,3.1746758E1,7.993561E0,3.095058E1,2.6049812E0,1.6419243E0,8.1688385E0,1.08966465E1,3.294479E1,1.6506519E0,2.502709E0,4.9385104E0,3.0010677E1,1.7360793E0,5.2624645E0,2.731096E0,2.920619E1,1.7443904E0,1.5908208E0,1.0141604E0,1.196747E0,6.972092E0,8.893425E0,2.0032208E0,7.868753E0,2.5076036E1,1.114409E0,1.3883E0,3.9025083E0,1.0360022E0],"tree_param":{"num_deleted":"0","num_feature":"9","num_nodes":"43","size_leaf_vector":"1"}},{"base_weights":[7.552058E-2,-5.016768E-1,5.020662E-1,-9.200357E-1,-2.7584285E-1,2.5366837E-1,7.9926765E-1,-1.21600166E-1,-2.9306144E-1,5.934175E-1,-4.071135E-1,8.334213E-2,2.6457888E-1,2.7955502E-1,9.3067586E-1,-1.6281731E-1,4.101438E-1,-4.769534E-1,3.4635526E-1,3.0447277E-1,-3.6163387E-1,2.507625E-1,-2.5760433E-1,2.9189873E-1,3.9381504E-2,1.0913385E-1,-1.5687764E-1,-5.013926E-2,2.3631948E-1,2.3195311E-1,1.7405445E-2,-2.3555343E-1,5.3692352E-2,-2.3480293E-1,1.7063051E-1],"categories":[],"categories_nodes":[],"categories_segments":[],"categories_sizes":[],"default_left":[0,0,0,0,0,0,0,0,0,0,0,0,0,0,0,0,0,0,0,0,0,0,0,0,0,0,0,0,0,0,0,0,0,0,0],"id":12,"left_children":[1,3,5,7,9,11,13,-1,-1,15,17,19,-1,21,23,-1,-1,25,27,29,31,-1,33,-1,-1,-1,-1,-1,-1,-1,-1,-1,-1,-1,-1],"loss_changes":[3.1445944E1,4.751487E0,5.114975E0,5.0325394E-3,4.423347E0,4.288288E0,1.8585606E0,0E0,0E0,5.3397675E0,1.8976321E0,3.4505486E0,0E0,2.7240813E0,6.277065E-1,0E0,0E0,1.3828292E0,9.2565763E-1,2.576233E0,2.856357E0,0E0,2.5691123E0,0E0,0E0,0E0,0E0,0E0,0E0,0E0,0E0,0E0,0E0,0E0,0E0],"parents":[2147483647,0,0,1,1,2,2,3,3,4,4,5,5,6,6,9,9,10,10,11,11,13,13,14,14,17,17,18,18,19,19,20,20,22,22],"right_children":[2,4,6,8,10,12,14,-1,-1,16,18,20,-1,22,24,-1,-1,26,28,30,32,-1,34,-1,-1,-1,-1,-1,-1,-1,-1,-1,-1,-1,-1],"split_conditions":[1E0,6.655301E6,6.732074E6,5E0,9E0,5.894673E6,5.785189E6,-1.21600166E-1,-2.9306144E-1,2E0,3.13E2,5.830997E6,2.6457888E-1,5.753581E6,5.914791E6,-1.6281731E-1,4.101438E-1,6.657208E6,1.137E3,6.5E1,1.5E1,2.507625E-1,1.057E3,2.9189873E-1,3.9381504E-2,1.0913385E-1,-1.5687764E-1,-5.013926E-2,2.3631948E-1,2.3195311E-1,1.7405445E-2,-2.3555343E-1,5.3692352E-2,-2.3480293E-1,1.7063051E-1],"split_indices":[5,1,1,7,7,0,0,0,0,7,2,0,0,0,0,0,0,1,3,2,7,0,3,0,0,0,0,0,0,0,0,0,0,0,0],"split_type":[0,0,0,0,0,0,0,0,0,0,0,0,0,0,0,0,0,0,0,0,0,0,0,0,0,0,0,0,0,0,0,0,0,0,0],"sum_hessian":[1.2570147E2,5.3242992E1,7.245848E1,1.743247E1,3.5810524E1,4.0662872E1,3.1795607E1,2.717154E0,1.4715317E1,4.1365275E0,3.1673996E1,3.3006413E1,7.6564574E0,7.2016854E0,2.4593922E1,1.7443867E0,2.3921406E0,2.9444464E1,2.2295322E0,2.2410173E1,1.0596241E1,3.3560188E0,3.8456664E0,2.303236E1,1.5615603E0,1.0553851E0,2.8389078E1,1.2130629E0,1.0164694E0,6.846546E0,1.5563627E1,5.7914553E0,4.8047853E0,2.4578512E0,1.3878152E0],"tree_param":{"num_deleted":"0","num_feature":"9","num_nodes":"35","size_leaf_vector":"1"}},{"base_weights":[7.452036E-2,-4.21529E-1,4.3754846E-1,-8.7504315E-1,-2.0693678E-1,2.1172765E-1,7.463866E-1,-1.035428E-1,-2.8347936E-1,5.034352E-1,-3.163457E-1,6.91815E-2,2.5421143E-1,2.501914E-1,8.9580333E-1,-1.4387828E-1,1.1626481E0,-5.044612E-1,-4.8402127E-2,4.5970708E-1,-1.1806717E-1,5.7620347E-1,-1.4435174E-1,2.870965E-1,4.7826525E-2,4.474562E-1,6.444465E-2,-2.3042347E-1,-2.9584495E-2,2.9089752E-1,-8.678064E-2,3.6072098E-2,2.0618227E-1,-3.1327673E-3,-3.041496E-1,-1.8998496E-2,2.2233607E-1],"categories":[],"categories_nodes":[],"categories_segments":[],"categories_sizes":[],"default_left":[0,0,0,0,0,0,0,0,0,0,0,0,0,0,0,0,0,0,0,0,0,0,0,0,0,0,0,0,0,0,0,0,0,0,0,0,0],"id":13,"left_children":[1,3,5,7,9,11,13,-1,-1,15,17,19,-1,21,23,-1,25,27,29,31,33,35,-1,-1,-1,-1,-1,-1,-1,-1,-1,-1,-1,-1,-1,-1,-1],"loss_changes":[2.0132313E1,4.304182E0,4.2490005E0,8.928013E-2,2.7440896E0,3.3723705E0,1.6398182E0,0E0,0E0,3.6940842E0,1.4205244E0,2.4996467E0,0E0,2.12713E0,6.354618E-1,0E0,5.0241756E-1,1.6736536E0,3.5479934E0,6.9129825E-1,2.0956426E0,7.357627E-1,0E0,0E0,0E0,0E0,0E0,0E0,0E0,0E0,0E0,0E0,0E0,0E0,0E0,0E0,0E0],"parents":[2147483647,0,0,1,1,2,2,3,3,4,4,5,5,6,6,9,9,10,10,11,11,13,13,14,14,16,16,17,17,18,18,19,19,20,20,21,21],"right_children":[2,4,6,8,10,12,14,-1,-1,16,18,20,-1,22,24,-1,26,28,30,32,34,36,-1,-1,-1,-1,-1,-1,-1,-1,-1,-1,-1,-1,-1,-1,-1],"split_conditions":[1E0,6.655301E6,6.732074E6,5E0,9E0,5.894673E6,5.785189E6,-1.035428E-1,-2.8347936E-1,2E0,6.756803E6,5.673774E6,2.5421143E-1,6.775087E6,5.913183E6,-1.4387828E-1,5.870973E6,1.203E3,6.767539E6,1.7E1,3.952E3,3.4E1,-1.4435174E-1,2.870965E-1,4.7826525E-2,4.474562E-1,6.444465E-2,-2.3042347E-1,-2.9584495E-2,2.9089752E-1,-8.678064E-2,3.6072098E-2,2.0618227E-1,-3.1327673E-3,-3.041496E-1,-1.8998496E-2,2.2233607E-1],"split_indices":[5,1,1,7,7,0,0,0,0,7,1,0,0,1,0,0,0,3,1,7,3,2,0,0,0,0,0,0,0,0,0,0,0,0,0,0,0],"split_type":[0,0,0,0,0,0,0,0,0,0,0,0,0,0,0,0,0,0,0,0,0,0,0,0,0,0,0,0,0,0,0,0,0,0,0,0,0],"sum_hessian":[1.0976347E2,4.619924E1,6.3564236E1,1.3700732E1,3.249851E1,3.7877655E1,2.5686583E1,2.4551134E0,1.1245619E1,3.734657E0,2.8763851E1,3.1973581E1,5.9040713E0,6.7186074E0,1.8967976E1,1.5476112E0,2.1870458E0,1.616144E1,1.2602411E1,1.0063709E1,2.1909872E1,4.8884287E0,1.8301786E0,1.7110874E1,1.857101E0,1.119495E0,1.0675507E0,9.1070385E0,7.0544004E0,1.752849E0,1.0849563E1,4.8285947E0,5.2351146E0,2.0562605E1,1.3472675E0,1.0041318E0,3.8842967E0],"tree_param":{"num_deleted":"0","num_feature":"9","num_nodes":"37","size_leaf_vector":"1"}},{"base_weights":[6.695009E-2,-3.5321724E-1,3.7673855E-1,-5.9125876E-1,-2.5497455E-2,7.7256805E-1,1.7248748E-1,-3.7040304E-2,-7.0530736E-1,5.8049065E-1,-1.8173404E-1,1.5575422E-1,2.6860222E-1,-1.1474532E-2,6.6280574E-1,-1.7076145E-1,4.2224005E-1,-7.461369E-1,-0E0,-0E0,2.9103094E-1,4.6763325E-1,-3.3058557E-1,-1.3538224E-1,1.9329552E-1,-2.440042E-1,3.3416572E-1,2.5515157E-1,2.6485997E-1,-1.578568E-1,3.8870153E-1,-2.7445915E-1,-1.3202865E-1,-2.2453059E-2,2.6634395E-1,-1.562376E-1,8.493185E-2,-2.3895748E-2,-3.404443E-1,1.9029519E-1,-1.2063376E-1,1.4840707E-1,-7.0551574E-2],"categories":[],"categories_nodes":[],"categories_segments":[],"categories_sizes":[],"default_left":[0,0,0,0,0,0,0,0,0,0,0,0,0,0,0,0,0,0,0,0,0,0,0,0,0,0,0,0,0,0,0,0,0,0,0,0,0,0,0,0,0,0,0],"id":14,"left_children":[1,3,5,7,9,11,13,15,17,19,21,23,-1,25,27,-1,29,31,-1,-1,-1,33,35,-1,-1,37,39,41,-1,-1,-1,-1,-1,-1,-1,-1,-1,-1,-1,-1,-1,-1,-1],"loss_changes":[1.3022162E1,3.2306023E0,4.4298105E0,1.4378834E0,1.8701501E0,1.2059536E0,3.6315126E0,1.5646923E0,6.060972E-1,9.072324E-1,1.6918607E0,1.6521938E0,0E0,2.4454744E0,6.41407E-1,0E0,3.5333166E0,4.3988895E-1,0E0,0E0,0E0,8.9562714E-1,1.7779337E0,0E0,0E0,2.4822347E0,2.9574995E0,7.762213E-1,0E0,0E0,0E0,0E0,0E0,0E0,0E0,0E0,0E0,0E0,0E0,0E0,0E0,0E0,0E0],"parents":[2147483647,0,0,1,1,2,2,3,3,4,4,5,5,6,6,7,7,8,8,9,9,10,10,11,11,13,13,14,14,16,16,17,17,21,21,22,22,25,25,26,26,27,27],"right_children":[2,4,6,8,10,12,14,16,18,20,22,24,-1,26,28,-1,30,32,-1,-1,-1,34,36,-1,-1,38,40,42,-1,-1,-1,-1,-1,-1,-1,-1,-1,-1,-1,-1,-1,-1,-1],"split_conditions":[1E0,6.714736E6,1.1E1,5E0,6E0,2E0,5.880335E6,2E0,5.883187E6,5E0,5.732589E6,6.691852E6,2.6860222E-1,1.277E3,1.5E1,-1.7076145E-1,5.579178E6,1E0,-0E0,-0E0,2.9103094E-1,1.7E1,2.62E2,-1.3538224E-1,1.9329552E-1,1.166E3,3.6E1,2.1E1,2.6485997E-1,-1.578568E-1,3.8870153E-1,-2.7445915E-1,-1.3202865E-1,-2.2453059E-2,2.6634395E-1,-1.562376E-1,8.493185E-2,-2.3895748E-2,-3.404443E-1,1.9029519E-1,-1.2063376E-1,1.4840707E-1,-7.0551574E-2],"split_indices":[4,1,7,7,8,7,0,7,0,8,0,1,0,3,7,0,0,3,0,0,0,8,2,0,0,3,8,8,0,0,0,0,0,0,0,0,0,0,0,0,0,0,0],"split_type":[0,0,0,0,0,0,0,0,0,0,0,0,0,0,0,0,0,0,0,0,0,0,0,0,0,0,0,0,0,0,0,0,0,0,0,0,0,0,0,0,0,0,0],"sum_hessian":[9.800464E1,4.1396034E1,5.66086E1,2.3336273E1,1.8059761E1,1.8154312E1,3.8454292E1,4.3583736E0,1.89779E1,3.0139947E0,1.5045766E1,3.5254571E0,1.4628855E1,2.8524761E1,9.929529E0,2.008978E0,2.3493955E0,1.7939983E1,1.037917E0,1.612735E0,1.4012598E0,2.2810833E0,1.2764683E1,1.51489E0,2.0105672E0,1.7401358E1,1.1123404E1,4.397399E0,5.5321302E0,1.2620494E0,1.0873461E0,1.0071345E1,7.868637E0,1.2504996E0,1.0305837E0,9.984448E0,2.7802343E0,1.5705428E1,1.69593E0,8.096912E0,3.0264912E0,3.0852141E0,1.3121846E0],"tree_param":{"num_deleted":"0","num_feature":"9","num_nodes":"43","size_leaf_vector":"1"}},{"base_weights":[6.0029067E-2,-3.0101797E-1,3.1861475E-1,-1.4868829E-1,-9.584394E-1,1.7675163E-1,8.0351025E-1,-2.5048327E-1,8.737035E-3,-3.173619E-1,-5.0330486E-2,1.702617E-2,5.2554417E-1,5.6844555E-2,2.6146558E-1,-9.905331E-2,7.302675E-1,3.4873784E-1,-1.992045E-1,1.183225E-1,2.54383E-1,8.015991E-2,-1.1398061E-1,1.9090855E-2,2.9829532E-1,1.5785068E-1,-2.033491E-2,-0E0,-2.0876427E-1,2.3748718E-1,-9.8476864E-2],"categories":[],"categories_nodes":[],"categories_segments":[],"categories_sizes":[],"default_left":[0,0,0,0,0,0,0,0,0,0,0,0,0,0,0,0,0,0,0,0,0,0,0,0,0,0,0,0,0,0,0],"id":15,"left_children":[1,3,5,7,9,11,13,-1,15,-1,-1,17,19,-1,-1,21,23,25,27,29,-1,-1,-1,-1,-1,-1,-1,-1,-1,-1,-1],"loss_changes":[8.470455E0,3.5301185E0,3.3990583E0,3.5447273E0,2.3455143E-1,2.2972703E0,2.1057987E-1,0E0,2.226254E0,0E0,0E0,2.2571328E0,1.5200617E0,0E0,0E0,2.5970793E0,4.8822403E-1,1.0052899E0,1.851567E0,2.4344652E0,0E0,0E0,0E0,0E0,0E0,0E0,0E0,0E0,0E0,0E0,0E0],"parents":[2147483647,0,0,1,1,2,2,3,3,4,4,5,5,6,6,8,8,11,11,12,12,15,15,16,16,17,17,18,18,19,19],"right_children":[2,4,6,8,10,12,14,-1,16,-1,-1,18,20,-1,-1,22,24,26,28,30,-1,-1,-1,-1,-1,-1,-1,-1,-1,-1,-1],"split_conditions":[1E0,2E1,5.894673E6,6.630483E6,2.64E2,6.732074E6,2E0,-2.5048327E-1,1.9E1,-3.173619E-1,-5.0330486E-2,5.6905E6,5.785189E6,5.6844555E-2,2.6146558E-1,1.4E1,4.8E1,6.691852E6,2.45E2,5.753581E6,2.54383E-1,8.015991E-2,-1.1398061E-1,1.9090855E-2,2.9829532E-1,1.5785068E-1,-2.033491E-2,-0E0,-2.0876427E-1,2.3748718E-1,-9.8476864E-2],"split_indices":[6,7,0,1,2,1,3,0,7,0,0,0,0,0,0,7,2,1,2,0,0,0,0,0,0,0,0,0,0,0,0],"split_type":[0,0,0,0,0,0,0,0,0,0,0,0,0,0,0,0,0,0,0,0,0,0,0,0,0,0,0,0,0,0,0],"sum_hessian":[8.868129E1,3.677869E1,5.19026E1,3.097891E1,5.799777E0,4.136997E1,1.0532631E1,5.095937E0,2.5882975E1,4.739347E0,1.0604302E0,2.9291697E1,1.2078271E1,1.574883E0,8.957748E0,2.314886E1,2.734114E0,1.1499853E1,1.7791843E1,6.0781507E0,6.00012E0,9.91413E0,1.323473E1,1.2352556E0,1.4988582E0,8.048261E0,3.4515917E0,1.342835E1,4.363494E0,2.2049925E0,3.8731582E0],"tree_param":{"num_deleted":"0","num_feature":"9","num_nodes":"31","size_leaf_vector":"1"}},{"base_weights":[5.1385574E-2,-2.496941E-1,2.669258E-1,-1.1492611E-1,-9.0603215E-1,6.456833E-1,1.12628706E-1,-6.387635E-1,5.5974677E-2,-3.0638975E-1,-4.342348E-2,4.198877E-2,8.0927205E-1,-2.520192E-1,3.625011E-1,-2.3749813E-1,-2.2866723E-1,2.7345863E-1,-4.391583E-2,-1.1638587E-1,1.6518089E-1,1.9419549E-2,2.6594934E-1,-1.8340709E-2,-8.658411E-1,1.7847005E-1,2.776806E-1,6.2062975E-2,-1.6097666E-1,-9.174531E-2,8.1384346E-2,-1.6607451E-1,5.178915E-2,-6.26937E-2,-3.994088E-1,1.3447362E-1,-5.395307E-2],"categories":[],"categories_nodes":[],"categories_segments":[],"categories_sizes":[],"default_left":[0,0,0,0,0,0,0,0,0,0,0,0,0,0,0,0,0,0,0,0,0,0,0,0,0,0,0,0,0,0,0,0,0,0,0,0,0],"id":16,"left_children":[1,3,5,7,9,11,13,15,17,-1,-1,19,21,23,25,-1,27,-1,29,-1,-1,-1,-1,31,33,35,-1,-1,-1,-1,-1,-1,-1,-1,-1,-1,-1],"loss_changes":[5.4482327E0,2.8817325E0,2.7145214E0,2.8008053E0,2.3359728E-1,1.2419596E0,3.401589E0,1.9737458E-1,2.1413767E0,0E0,0E0,1.1315601E0,4.603305E-1,2.0687962E0,2.0102963E0,0E0,6.3545823E-1,0E0,1.8990473E0,0E0,0E0,0E0,0E0,1.3717468E0,8.0239224E-1,1.8472126E0,0E0,0E0,0E0,0E0,0E0,0E0,0E0,0E0,0E0,0E0,0E0],"parents":[2147483647,0,0,1,1,2,2,3,3,4,4,5,5,6,6,7,7,8,8,11,11,12,12,13,13,14,14,16,16,18,18,23,23,24,24,25,25],"right_children":[2,4,6,8,10,12,14,16,18,-1,-1,20,22,24,26,-1,28,-1,30,-1,-1,-1,-1,32,34,36,-1,-1,-1,-1,-1,-1,-1,-1,-1,-1,-1],"split_conditions":[1E0,2E1,1.1E1,6.655301E6,2.64E2,2E0,1.7E1,6.630483E6,6.658096E6,-3.0638975E-1,-4.342348E-2,6.691852E6,6.64566E6,1.6E1,5.8718E6,-2.3749813E-1,6.645227E6,2.7345863E-1,1.184E3,-1.1638587E-1,1.6518089E-1,1.9419549E-2,2.6594934E-1,3E0,2.28E2,6.699734E6,2.776806E-1,6.2062975E-2,-1.6097666E-1,-9.174531E-2,8.1384346E-2,-1.6607451E-1,5.178915E-2,-6.26937E-2,-3.994088E-1,1.3447362E-1,-5.395307E-2],"split_indices":[6,7,7,1,2,7,7,1,1,0,0,1,1,7,0,0,1,0,3,0,0,0,0,2,2,1,0,0,0,0,0,0,0,0,0,0,0],"split_type":[0,0,0,0,0,0,0,0,0,0,0,0,0,0,0,0,0,0,0,0,0,0,0,0,0,0,0,0,0,0,0,0,0,0,0,0,0],"sum_hessian":[8.190126E1,3.3910545E1,4.799071E1,2.9235077E1,4.675469E0,1.2781884E1,3.5208828E1,6.6621284E0,2.2572948E1,3.6499314E0,1.0255376E0,3.1234229E0,9.658462E0,1.4150171E1,2.1058657E1,3.9974723E0,2.6646564E0,1.6151485E0,2.09578E1,1.7146326E0,1.4087902E0,1.2020935E0,8.4563675E0,1.1112499E1,3.037672E0,1.6997961E1,4.060696E0,1.1050283E0,1.559628E0,1.163616E1,9.32164E0,2.5606246E0,8.551874E0,1.9499592E0,1.0877128E0,9.713065E0,7.284896E0],"tree_param":{"num_deleted":"0","num_feature":"9","num_nodes":"37","size_leaf_vector":"1"}},{"base_weights":[3.587321E-2,-1.4962325E-1,2.9914868E-1,-2.3074664E-1,2.239754E-1,7.31519E-1,3.4507234E-2,-6.203705E-2,-7.359016E-1,3.3501065E-1,3.1581587E-1,-2.2897097E-1,5.826834E-1,-1.4437865E-1,2.6841858E-1,-2.859036E-1,3.1555515E-2,-3.9648652E-1,2.3413786E-1,2.6230115E-1,-6.9604325E-1,8.9336514E-2,7.607515E-1,-1.6156232E-1,1.9791309E-2,-0E0,-1.6540171E-1,-1.4738777E-2,2.99591E-1,-3.6672696E-2,-3.5196444E-1,1.6806516E-1,-1.0987833E-1,5.0267562E-2,3.0065244E-1],"categories":[],"categories_nodes":[],"categories_segments":[],"categories_sizes":[],"default_left":[0,0,0,0,0,0,0,0,0,0,0,0,0,0,0,0,0,0,0,0,0,0,0,0,0,0,0,0,0,0,0,0,0,0,0],"id":17,"left_children":[1,3,5,7,-1,9,11,13,15,-1,17,19,21,23,-1,-1,-1,25,-1,27,29,31,33,-1,-1,-1,-1,-1,-1,-1,-1,-1,-1,-1,-1],"loss_changes":[3.8674095E0,3.4784439E0,3.6493692E0,3.5576978E0,0E0,1.4662628E0,3.278329E0,2.7041674E0,2.1169147E0,0E0,2.8012538E0,3.6988692E0,4.965992E-1,2.7301087E0,0E0,0E0,0E0,2.0301068E-1,0E0,1.9782E0,1.9548941E0,9.203134E-1,4.5279884E-1,0E0,0E0,0E0,0E0,0E0,0E0,0E0,0E0,0E0,0E0,0E0,0E0],"parents":[2147483647,0,0,1,1,2,2,3,3,5,5,6,6,7,7,8,8,10,10,11,11,12,12,13,13,17,17,19,19,20,20,21,21,22,22],"right_children":[2,4,6,8,-1,10,12,14,16,-1,18,20,22,24,-1,-1,-1,26,-1,28,30,32,34,-1,-1,-1,-1,-1,-1,-1,-1,-1,-1,-1,-1],"split_conditions":[6.714736E6,5.900818E6,1.4E1,5.863919E6,2.239754E-1,1.6E1,2.39E2,5.860724E6,1.401E3,3.3501065E-1,1E0,7E1,1.6E1,1E0,2.6841858E-1,-2.859036E-1,3.1555515E-2,2.6E1,2.3413786E-1,6.788118E6,6.775834E6,1.5E1,5.785189E6,-1.6156232E-1,1.9791309E-2,-0E0,-1.6540171E-1,-1.4738777E-2,2.99591E-1,-3.6672696E-2,-3.5196444E-1,1.6806516E-1,-1.0987833E-1,5.0267562E-2,3.0065244E-1],"split_indices":[1,0,7,0,0,8,2,0,3,0,4,2,7,6,0,0,0,8,0,1,1,7,0,0,0,0,0,0,0,0,0,0,0,0,0],"split_type":[0,0,0,0,0,0,0,0,0,0,0,0,0,0,0,0,0,0,0,0,0,0,0,0,0,0,0,0,0,0,0,0,0,0,0],"sum_hessian":[7.6968E1,4.5184288E1,3.1783714E1,4.221698E1,2.9673064E0,1.1254345E1,2.052937E1,3.263758E1,9.579399E0,4.8414717E0,6.4128737E0,1.4135224E1,6.3941455E0,3.0929342E1,1.7082393E0,7.6027236E0,1.9766756E0,2.5046673E0,3.9082062E0,6.998468E0,7.1367564E0,2.243021E0,4.1511245E0,1.038488E1,2.0544462E1,1.0243629E0,1.4803045E0,5.47873E0,1.5197377E0,3.9057837E0,3.2309728E0,1.098024E0,1.144997E0,1.8106042E0,2.3405204E0],"tree_param":{"num_deleted":"0","num_feature":"9","num_nodes":"35","size_leaf_vector":"1"}},{"base_weights":[4.0107366E-2,-2.3440758E-2,6.661202E-1,-9.631198E-2,5.4523027E-1,9.0710944E-1,3.8216144E-2,1.970336E-1,-1.4552964E-1,2.4421373E-1,-1.3347326E-1,4.8263676E-2,3.1186628E-1,6.808923E-2,-3.5098806E-2,-6.6731197E-1,-5.259069E-2,1.4359915E-1,-2.8348544E-1,-2.2624168E-1,1.2154091E-2],"categories":[],"categories_nodes":[],"categories_segments":[],"categories_sizes":[],"default_left":[0,0,0,0,0,0,0,0,0,0,0,0,0,0,0,0,0,0,0,0,0],"id":18,"left_children":[1,3,5,7,9,11,13,-1,15,-1,-1,-1,-1,-1,-1,17,19,-1,-1,-1,-1],"loss_changes":[2.9302094E0,2.7371242E0,8.97037E-1,2.2458007E0,2.3889163E0,1.8137813E-1,1.2661242E-1,0E0,2.6420743E0,0E0,0E0,0E0,0E0,0E0,0E0,3.1469872E0,3.3264947E0,0E0,0E0,0E0,0E0],"parents":[2147483647,0,0,1,1,2,2,3,3,4,4,5,5,6,6,8,8,15,15,16,16],"right_children":[2,4,6,8,10,12,14,-1,16,-1,-1,-1,-1,-1,-1,18,20,-1,-1,-1,-1],"split_conditions":[6.789259E6,5.897288E6,5.910973E6,1E0,6.78717E6,5.753581E6,8E0,1.970336E-1,1E1,2.4421373E-1,-1.3347326E-1,4.8263676E-2,3.1186628E-1,6.808923E-2,-3.5098806E-2,5.597452E6,6.643428E6,1.4359915E-1,-2.8348544E-1,-2.2624168E-1,1.2154091E-2],"split_indices":[1,0,0,8,1,0,3,0,8,0,0,0,0,0,0,0,1,0,0,0,0],"split_type":[0,0,0,0,0,0,0,0,0,0,0,0,0,0,0,0,0,0,0,0,0],"sum_hessian":[7.064877E1,6.486679E1,5.781976E0,5.8390892E1,6.4758997E0,3.74191E0,2.0400662E0,2.7000873E0,5.5690807E1,5.3124547E0,1.1634449E0,1.0116595E0,2.7302504E0,1.0027068E0,1.0373595E0,7.322786E0,4.836802E1,1.2166699E0,6.106116E0,4.9609575E0,4.3407063E1],"tree_param":{"num_deleted":"0","num_feature":"9","num_nodes":"21","size_leaf_vector":"1"}},{"base_weights":[3.689669E-2,3.970555E-1,-6.0291663E-2,-2.518637E-1,6.8215686E-1,-3.80008E-1,4.6868388E-2,1.2419044E-1,-5.3668576E-1,-0E0,9.773235E-1,-6.142552E-1,7.954705E-2,5.252238E-1,-1.011906E-1,-2.7353802E-1,-5.9556242E-2,1.6723819E-1,-1.1326858E-1,3.425615E-1,4.1829455E-1,1.07646555E-1,-2.3847336E-1,7.6817423E-1,-1.8108201E-1,1.5490077E-1,1.0566952E0,1.1425999E-1,-5.686785E-1,5.5105027E-2,-9.597293E-2,-0E0,1.6503014E-1,3.800803E-1,-3.5370607E-2,-1.0976912E-2,2.0656873E-1,7.982281E-2,4.1889408E-1,-2.9779155E-2,1.6566843E-1,-3.1933945E-1,5.331322E-2],"categories":[],"categories_nodes":[],"categories_segments":[],"categories_sizes":[],"default_left":[0,0,0,0,0,0,0,0,0,0,0,0,0,0,0,0,0,0,0,0,0,0,0,0,0,0,0,0,0,0,0,0,0,0,0,0,0,0,0,0,0,0,0],"id":19,"left_children":[1,3,5,7,9,11,13,-1,15,17,19,21,23,25,27,-1,29,-1,-1,-1,31,-1,-1,33,-1,35,37,39,41,-1,-1,-1,-1,-1,-1,-1,-1,-1,-1,-1,-1,-1,-1],"loss_changes":[2.4784932E0,2.9987657E0,1.939372E0,1.2237053E0,2.1517377E0,1.6287444E0,3.0655499E0,0E0,5.9921885E-1,1.1212351E0,5.89633E-2,2.025386E0,3.080996E0,1.7291334E0,3.404148E0,0E0,2.6447695E-1,0E0,0E0,0E0,1.3484299E-1,0E0,0E0,1.7077333E0,0E0,8.3774954E-1,5.146413E-1,2.2576668E0,4.211586E0,0E0,0E0,0E0,0E0,0E0,0E0,0E0,0E0,0E0,0E0,0E0,0E0,0E0,0E0],"parents":[2147483647,0,0,1,1,2,2,3,3,4,4,5,5,6,6,8,8,9,9,10,10,11,11,12,12,13,13,14,14,16,16,20,20,23,23,25,25,26,26,27,27,28,28],"right_children":[2,4,6,8,10,12,14,-1,16,18,20,22,24,26,28,-1,30,-1,-1,-1,32,-1,-1,34,-1,36,38,40,42,-1,-1,-1,-1,-1,-1,-1,-1,-1,-1,-1,-1,-1,-1],"split_conditions":[1.1E1,2E0,6.667141E6,5.794448E6,6.657208E6,1.63E2,6.4E1,1.2419044E-1,5.857784E6,2.6E1,5.873914E6,4E0,2.28E2,4E1,3.6E1,-2.7353802E-1,6.680354E6,1.6723819E-1,-1.1326858E-1,3.425615E-1,5.896879E6,1.07646555E-1,-2.3847336E-1,1.6E1,-1.8108201E-1,5.898027E6,3E1,2.6E2,5E1,5.5105027E-2,-9.597293E-2,-0E0,1.6503014E-1,3.800803E-1,-3.5370607E-2,-1.0976912E-2,2.0656873E-1,7.982281E-2,4.1889408E-1,-2.9779155E-2,1.6566843E-1,-3.1933945E-1,5.331322E-2],"split_indices":[7,7,1,0,1,2,2,0,0,8,0,8,2,2,8,0,1,0,0,0,0,0,0,3,0,0,8,2,8,0,0,0,0,0,0,0,0,0,0,0,0,0,0],"split_type":[0,0,0,0,0,0,0,0,0,0,0,0,0,0,0,0,0,0,0,0,0,0,0,0,0,0,0,0,0,0,0,0,0,0,0,0,0,0,0,0,0,0,0],"sum_hessian":[6.816152E1,1.4047621E1,5.4113903E1,4.216431E0,9.83119E0,1.3179461E1,4.0934444E1,1.0222296E0,3.1942015E0,3.301674E0,6.5295157E0,8.650863E0,4.528599E0,9.232782E0,3.170166E1,1.1609255E0,2.033276E0,1.1726829E0,2.128991E0,4.1009393E0,2.4285767E0,1.1134844E0,7.537378E0,2.2661846E0,2.262414E0,6.313337E0,2.9194453E0,2.2071344E1,9.630317E0,1.00486E0,1.0284159E0,1.0005636E0,1.4280131E0,1.2471901E0,1.0189943E0,5.193748E0,1.1195885E0,1.5016239E0,1.4178214E0,1.5203947E1,6.8673973E0,5.6110334E0,4.019283E0],"tree_param":{"num_deleted":"0","num_feature":"9","num_nodes":"43","size_leaf_vector":"1"}},{"base_weights":[4.4509076E-2,-4.60129E-3,6.1415833E-1,4.862334E-2,-6.327725E-1,7.941835E-1,-0E0,-5.1849462E-2,4.8465168E-1,8.414487E-2,-9.5006645E-1,5.0209027E-2,2.7294594E-1,-1.08649E-1,1.8540621E-1,2.7412227E-1,1.403046E-1,-3.863721E-1,-2.8137522E-2,1.2943671E-5,-1.5406276E-1,-1.2150688E-1,1.6662289E-1],"categories":[],"categories_nodes":[],"categories_segments":[],"categories_sizes":[],"default_left":[0,0,0,0,0,0,0,0,0,0,0,0,0,0,0,0,0,0,0,0,0,0,0],"id":20,"left_children":[1,3,5,7,9,11,-1,13,15,-1,17,-1,-1,19,-1,-1,21,-1,-1,-1,-1,-1,-1],"loss_changes":[1.9327079E0,2.1732702E0,6.627319E-1,2.6201494E0,1.8075278E0,5.3336143E-2,0E0,1.844651E0,1.4199538E0,0E0,9.226465E-1,0E0,0E0,2.0444236E0,0E0,0E0,1.9421396E0,0E0,0E0,0E0,0E0,0E0,0E0],"parents":[2147483647,0,0,1,1,2,2,3,3,4,4,5,5,7,7,8,8,10,10,13,13,16,16],"right_children":[2,4,6,8,10,12,-1,14,16,-1,18,-1,-1,20,-1,-1,22,-1,-1,-1,-1,-1,-1],"split_conditions":[6.79003E6,6.785316E6,5.915119E6,6.756803E6,3.3E1,5.759312E6,-0E0,5.898027E6,1.8E1,8.414487E-2,1.79E2,5.0209027E-2,2.7294594E-1,5.863919E6,1.8540621E-1,2.7412227E-1,1E0,-3.863721E-1,-2.8137522E-2,1.2943671E-5,-1.5406276E-1,-1.2150688E-1,1.6662289E-1],"split_indices":[1,1,0,1,2,0,0,0,8,0,2,0,0,0,0,0,5,0,0,0,0,0,0],"split_type":[0,0,0,0,0,0,0,0,0,0,0,0,0,0,0,0,0,0,0,0,0,0,0],"sum_hessian":[6.580539E1,6.1334057E1,4.47133E0,5.7246952E1,4.0871024E0,3.3227317E0,1.1485986E0,4.7055767E1,1.0191186E1,1.0024986E0,3.0846035E0,1.0333644E0,2.2893674E0,4.428763E1,2.768142E0,3.6718106E0,6.5193753E0,1.7666941E0,1.3179096E0,3.5508434E1,8.779191E0,2.724093E0,3.7952824E0],"tree_param":{"num_deleted":"0","num_feature":"9","num_nodes":"23","size_leaf_vector":"1"}},{"base_weights":[3.8601313E-2,3.665523E-1,-3.4556143E-2,-2.3320878E-1,6.815938E-1,1.9649822E-1,-7.842488E-2,9.2092454E-2,-4.8272696E-1,-0E0,2.8652537E-1,-1.3039432E-1,4.9267247E-1,-2.1866726E-2,-1.9907907E-1,1.398784E-1,-1.08683616E-1,-1.7289725E-1,3.232798E-1,3.1744447E-2,2.1596403E-1,-3.122538E-2,-2.3813437E-1,-6.4092465E-2,2.0618537E-1],"categories":[],"categories_nodes":[],"categories_segments":[],"categories_sizes":[],"default_left":[0,0,0,0,0,0,0,0,0,0,0,0,0,0,0,0,0,0,0,0,0,0,0,0,0],"id":21,"left_children":[1,3,5,7,9,-1,11,-1,13,15,-1,17,19,-1,-1,-1,-1,21,23,-1,-1,-1,-1,-1,-1],"loss_changes":[1.5978175E0,2.4963994E0,1.6136608E0,8.146579E-1,1.4818783E0,0E0,1.5529177E0,0E0,1.6029614E-1,7.6048374E-1,0E0,9.672746E-1,2.2222364E-1,0E0,0E0,0E0,0E0,1.7408947E0,1.0272591E0,0E0,0E0,0E0,0E0,0E0,0E0],"parents":[2147483647,0,0,1,1,2,2,3,3,4,4,6,6,8,8,9,9,11,11,12,12,17,17,18,18],"right_children":[2,4,6,8,10,-1,12,-1,14,16,-1,18,20,-1,-1,-1,-1,22,24,-1,-1,-1,-1,-1,-1],"split_conditions":[1E1,2E0,1E0,5.802569E6,6.649241E6,1.9649822E-1,3.11E2,9.2092454E-2,2.06E2,3.1E1,2.8652537E-1,6.789259E6,1.338E3,-2.1866726E-2,-1.9907907E-1,1.398784E-1,-1.08683616E-1,6.783879E6,1.5E1,3.1744447E-2,2.1596403E-1,-3.122538E-2,-2.3813437E-1,-6.4092465E-2,2.0618537E-1],"split_indices":[7,7,8,0,1,0,2,0,2,8,0,1,3,0,0,0,0,1,7,0,0,0,0,0,0],"split_type":[0,0,0,0,0,0,0,0,0,0,0,0,0,0,0,0,0,0,0,0,0,0,0,0,0],"sum_hessian":[6.368604E1,1.1133432E1,5.255261E1,3.8142939E0,7.3191385E0,2.1737797E0,5.037883E1,1.0057962E0,2.8084977E0,2.4577255E0,4.861413E0,4.7044582E1,3.3342445E0,1.4588121E0,1.3496855E0,1.036193E0,1.4215326E0,4.3782127E1,3.2624555E0,1.9388626E0,1.3953819E0,4.0610016E1,3.1721134E0,1.3740444E0,1.888411E0],"tree_param":{"num_deleted":"0","num_feature":"9","num_nodes":"25","size_leaf_vector":"1"}},{"base_weights":[3.79797E-2,6.653499E-2,-2.2248355E-1,-1.9279435E-2,6.181304E-1,7.8119785E-2,-7.120146E-1,-1.3870704E-1,9.036506E-1,6.6159794E-4,2.4147645E-1,-1.1095963E0,-0E0,-2.021764E-1,1.1745019E-1,3.5400037E-2,3.362959E-1,2.5019323E-2,-4.1297147E-1,-1.5169595E-1,-4.5368025E-1,-8.905281E-2,7.460149E-2],"categories":[],"categories_nodes":[],"categories_segments":[],"categories_sizes":[],"default_left":[0,0,0,0,0,0,0,0,0,0,0,0,0,0,0,0,0,0,0,0,0,0,0],"id":22,"left_children":[1,3,-1,5,7,9,11,13,15,17,-1,19,21,-1,-1,-1,-1,-1,-1,-1,-1,-1,-1],"loss_changes":[1.3889571E0,3.0073593E0,0E0,3.794905E0,2.0464995E0,2.6515079E0,1.982871E0,1.1744175E0,8.412638E-1,5.1119084E0,0E0,1.2025595E-1,3.293681E-1,0E0,0E0,0E0,0E0,0E0,0E0,0E0,0E0,0E0,0E0],"parents":[2147483647,0,0,1,1,3,3,4,4,5,5,6,6,7,7,8,8,9,9,11,11,12,12],"right_children":[2,4,-1,6,8,10,12,14,16,18,-1,20,22,-1,-1,-1,-1,-1,-1,-1,-1,-1,-1],"split_conditions":[5.6E1,5E1,-2.2248355E-1,4.1E1,6.668605E6,4E1,6.70023E6,5.85556E6,1.5E1,3.6E1,2.4147645E-1,6.685562E6,1.6E1,-2.021764E-1,1.1745019E-1,3.5400037E-2,3.362959E-1,2.5019323E-2,-4.1297147E-1,-1.5169595E-1,-4.5368025E-1,-8.905281E-2,7.460149E-2],"split_indices":[8,8,0,8,1,8,1,0,7,8,0,1,7,0,0,0,0,0,0,0,0,0,0],"split_type":[0,0,0,0,0,0,0,0,0,0,0,0,0,0,0,0,0,0,0,0,0,0,0],"sum_hessian":[6.2208862E1,6.101683E1,1.1920307E0,5.348038E1,7.5364523E0,4.75392E1,5.9411817E0,2.1092787E0,5.4271736E0,4.398955E1,3.5496452E0,3.4686396E0,2.4725418E0,1.0086539E0,1.1006248E0,1.6100463E0,3.817127E0,4.2451378E1,1.5381764E0,2.3892426E0,1.079397E0,1.0091707E0,1.4633712E0],"tree_param":{"num_deleted":"0","num_feature":"9","num_nodes":"23","size_leaf_vector":"1"}},{"base_weights":[1.6738014E-2,-1.5135354E-1,1.3709854E-1,-5.401949E-1,-4.8237048E-2,-8.328534E-3,3.4022605E-1,-1.3063765E-2,-1.9198637E-1,2.6847604E-1,-2.0739496E-1,9.9319436E-2,-6.7015696E-1,4.6760887E-1,-2.4611437E-1,-8.549229E-2,3.1653777E-1,-5.4061514E-1,-0E0,-2.2534662E-1,3.417214E-1,4.0338613E-2,-3.9080638E-1,6.3557285E-1,-0E0,-1.6598862E-1,5.415148E-2,-1.2074018E-1,1.2588152E-1,-1.39190955E-2,-1.8369606E-1,5.313311E-2,-1.2511191E-1,1.3898116E-2,-2.693017E-1,1.3161757E-2,2.5817728E-1,-0E0,2.3163901E-1,-1.1781664E-1,1.6925211E-1],"categories":[],"categories_nodes":[],"categories_segments":[],"categories_sizes":[],"default_left":[0,0,0,0,0,0,0,0,0,0,0,0,0,0,0,0,0,0,0,0,0,0,0,0,0,0,0,0,0,0,0,0,0,0,0,0,0,0,0,0,0],"id":23,"left_children":[1,3,5,7,9,11,13,-1,-1,15,17,19,21,23,25,27,-1,29,31,33,35,-1,-1,37,39,-1,-1,-1,-1,-1,-1,-1,-1,-1,-1,-1,-1,-1,-1,-1,-1],"loss_changes":[1.269803E0,9.543435E-1,1.1257417E0,1.5802014E-1,1.1478248E0,1.7043601E0,1.3100175E0,0E0,0E0,2.279059E0,1.0546285E0,1.6488049E0,2.0035577E0,1.0019593E0,5.7190883E-1,1.1307645E0,0E0,1.1325979E-1,8.4382606E-1,1.7524158E0,1.7145575E0,0E0,0E0,8.379576E-1,1.2671593E0,0E0,0E0,0E0,0E0,0E0,0E0,0E0,0E0,0E0,0E0,0E0,0E0,0E0,0E0,0E0,0E0],"parents":[2147483647,0,0,1,1,2,2,3,3,4,4,5,5,6,6,9,9,10,10,11,11,12,12,13,13,14,14,15,15,17,17,18,18,19,19,20,20,23,23,24,24],"right_children":[2,4,6,8,10,12,14,-1,-1,16,18,20,22,24,26,28,-1,30,32,34,36,-1,-1,38,40,-1,-1,-1,-1,-1,-1,-1,-1,-1,-1,-1,-1,-1,-1,-1,-1],"split_conditions":[1E0,6.656047E6,1.277E3,5E0,6.4E1,1.166E3,3.952E3,-1.3063765E-2,-1.9198637E-1,5E1,2.12E2,2.5E1,2.44E2,3.6E1,8.7E1,6.756803E6,3.1653777E-1,5.694122E6,3.6E1,1.6E1,1.79E2,4.0338613E-2,-3.9080638E-1,9E0,5.737036E6,-1.6598862E-1,5.415148E-2,-1.2074018E-1,1.2588152E-1,-1.39190955E-2,-1.8369606E-1,5.313311E-2,-1.2511191E-1,1.3898116E-2,-2.693017E-1,1.3161757E-2,2.5817728E-1,-0E0,2.3163901E-1,-1.1781664E-1,1.6925211E-1],"split_indices":[4,1,3,7,2,3,3,0,0,8,2,8,2,8,2,1,0,0,8,8,2,0,0,8,0,0,0,0,0,0,0,0,0,0,0,0,0,0,0,0,0],"split_type":[0,0,0,0,0,0,0,0,0,0,0,0,0,0,0,0,0,0,0,0,0,0,0,0,0,0,0,0,0,0,0,0,0,0,0,0,0,0,0,0,0],"sum_hessian":[6.0808212E1,2.4918924E1,3.588929E1,4.1313972E0,2.0787527E1,2.1187216E1,1.4702073E1,1.098998E0,3.0323992E0,6.5126495E0,1.4274878E1,1.8824244E1,2.362973E0,1.2384564E1,2.3175082E0,5.018623E0,1.494027E0,4.856476E0,9.418401E0,7.900443E0,1.09238E1,1.3169972E0,1.0459757E0,8.725398E0,3.6591666E0,1.3110075E0,1.0065007E0,3.3300273E0,1.6885954E0,1.0007291E0,3.855747E0,7.011602E0,2.4067993E0,6.183976E0,1.7164669E0,7.751471E0,3.1723292E0,1.7302938E0,6.995104E0,2.2555382E0,1.4036283E0],"tree_param":{"num_deleted":"0","num_feature":"9","num_nodes":"41","size_leaf_vector":"1"}},{"base_weights":[9.3205925E-3,2.706205E-1,-6.0435303E-2,-0E0,2.302426E-1,-2.4446003E-1,9.953033E-2,2.609946E-1,-1.5814729E-1,-4.810095E-2,-6.710524E-1,-8.943095E-2,7.409051E-1,-1.01966105E-1,5.7159287E-1,-2.5945595E-1,6.496433E-1,-2.9473567E-1,-1.5180328E-1,3.8258135E-1,-2.9855022E-1,-5.3379565E-2,2.9470822E-1,-0E0,2.952626E-1,-9.298039E-3,-2.3635171E-1,2.9283452E-1,-0E0,2.9199895E-2,-9.380732E-2,-8.918049E-2,1.9416054E-1,1.4110482E-1,-1.571657E-1],"categories":[],"categories_nodes":[],"categories_segments":[],"categories_sizes":[],"default_left":[0,0,0,0,0,0,0,0,0,0,0,0,0,0,0,0,0,0,0,0,0,0,0,0,0,0,0,0,0,0,0,0,0,0,0],"id":24,"left_children":[1,3,5,7,-1,9,11,13,-1,15,17,19,21,-1,23,25,27,-1,29,31,33,-1,-1,-1,-1,-1,-1,-1,-1,-1,-1,-1,-1,-1,-1],"loss_changes":[1.1225526E0,1.7188278E0,1.4373143E0,1.4319627E0,0E0,1.7949452E0,3.262448E0,1.5372717E0,0E0,2.6016703E0,8.545294E-1,2.151747E0,1.610214E0,0E0,1.1656069E0,1.5463867E0,8.6765623E-1,0E0,2.0801882E-1,1.4246624E0,2.8631744E0,0E0,0E0,0E0,0E0,0E0,0E0,0E0,0E0,0E0,0E0,0E0,0E0,0E0,0E0],"parents":[2147483647,0,0,1,1,2,2,3,3,5,5,6,6,7,7,9,9,10,10,11,11,12,12,14,14,15,15,16,16,18,18,19,19,20,20],"right_children":[2,4,6,8,-1,10,12,14,-1,16,18,20,22,-1,24,26,28,-1,30,32,34,-1,-1,-1,-1,-1,-1,-1,-1,-1,-1,-1,-1,-1,-1],"split_conditions":[1.2E1,6.693118E6,1.7E1,5.872635E6,2.302426E-1,2.4E2,5.785189E6,2E0,-1.5814729E-1,2.01E2,6.714736E6,5.671339E6,6.664628E6,-1.01966105E-1,6.649241E6,1.537E3,6.726692E6,-2.9473567E-1,6.773907E6,6.646754E6,6.68694E6,-5.3379565E-2,2.9470822E-1,-0E0,2.952626E-1,-9.298039E-3,-2.3635171E-1,2.9283452E-1,-0E0,2.9199895E-2,-9.380732E-2,-8.918049E-2,1.9416054E-1,1.4110482E-1,-1.571657E-1],"split_indices":[7,1,7,0,0,2,0,7,0,2,1,0,1,0,1,3,1,0,1,1,1,0,0,0,0,0,0,0,0,0,0,0,0,0,0],"split_type":[0,0,0,0,0,0,0,0,0,0,0,0,0,0,0,0,0,0,0,0,0,0,0,0,0,0,0,0,0,0,0,0,0,0,0],"sum_hessian":[5.8536217E1,1.2029336E1,4.650688E1,8.491214E0,3.5381222E0,2.1672142E1,2.4834738E1,6.071771E0,2.419443E0,1.5763451E1,5.9086924E0,1.9727335E1,5.107402E0,1.9271876E0,4.1445837E0,1.26907425E1,3.0727074E0,3.0155706E0,2.893122E0,5.655154E0,1.4072182E1,1.0314077E0,4.0759945E0,2.2060735E0,1.9385101E0,9.731113E0,2.9596295E0,1.7146157E0,1.3580917E0,1.0463353E0,1.8467866E0,1.4440072E0,4.211147E0,2.8423333E0,1.1229848E1],"tree_param":{"num_deleted":"0","num_feature":"9","num_nodes":"35","size_leaf_vector":"1"}},{"base_weights":[1.4903807E-2,7.7348895E-2,-2.8916195E-1,-3.9800458E-2,3.196971E-1,-4.5734137E-1,7.216908E-2,1.8329236E-1,-3.059471E-1,-5.967583E-2,5.173415E-1,8.137356E-2,-6.8205625E-1,-7.018161E-2,6.5891194E-1,5.340996E-2,-5.6797516E-1,-3.6630067E-1,1.8012469E-1,2.3655337E-1,2.274401E-1,-2.9597536E-1,-2.5942504E-2,4.809873E-2,-1.4897478E-1,3.093187E-1,4.3473713E-2,-1.4914998E-1,1.3547389E-1,-2.3035036E-1,8.486597E-2,-1.9753025E-1,8.1732444E-2,-2.537688E-1,1.717481E-1,9.5166795E-2,-1.296716E-1],"categories":[],"categories_nodes":[],"categories_segments":[],"categories_sizes":[],"default_left":[0,0,0,0,0,0,0,0,0,0,0,0,0,0,0,0,0,0,0,0,0,0,0,0,0,0,0,0,0,0,0,0,0,0,0,0,0],"id":25,"left_children":[1,3,5,7,9,11,-1,13,15,17,19,-1,21,23,25,27,29,31,-1,-1,33,-1,35,-1,-1,-1,-1,-1,-1,-1,-1,-1,-1,-1,-1,-1,-1],"loss_changes":[1.0897683E0,1.4212402E0,9.964157E-1,2.0509543E0,1.2939163E0,1.5121775E0,0E0,2.3457618E0,1.5700517E0,1.4684124E0,5.799079E-1,0E0,1.1505082E0,1.3802865E0,1.0136173E0,1.8461436E0,1.8620548E0,1.1538444E0,0E0,0E0,3.003526E0,0E0,5.8888733E-1,0E0,0E0,0E0,0E0,0E0,0E0,0E0,0E0,0E0,0E0,0E0,0E0,0E0,0E0],"parents":[2147483647,0,0,1,1,2,2,3,3,4,4,5,5,7,7,8,8,9,9,10,10,12,12,13,13,14,14,15,15,16,16,17,17,20,20,22,22],"right_children":[2,4,6,8,10,12,-1,14,16,18,20,-1,22,24,26,28,30,32,-1,-1,34,-1,36,-1,-1,-1,-1,-1,-1,-1,-1,-1,-1,-1,-1,-1,-1],"split_conditions":[2.1E1,1.7E1,2.61E2,1.4E1,1E0,6.8E1,7.216908E-2,6.72426E6,6.691852E6,5.779538E6,5.726554E6,8.137356E-2,1.24E3,5.862883E6,1.6E1,1E0,6.79003E6,1.407E3,1.8012469E-1,2.3655337E-1,5.737036E6,-2.9597536E-1,2.907E3,4.809873E-2,-1.4897478E-1,3.093187E-1,4.3473713E-2,-1.4914998E-1,1.3547389E-1,-2.3035036E-1,8.486597E-2,-1.9753025E-1,8.1732444E-2,-2.537688E-1,1.717481E-1,9.5166795E-2,-1.296716E-1],"split_indices":[7,7,2,7,5,2,0,1,1,0,0,0,3,0,8,3,1,3,0,0,0,0,3,0,0,0,0,0,0,0,0,0,0,0,0,0,0],"split_type":[0,0,0,0,0,0,0,0,0,0,0,0,0,0,0,0,0,0,0,0,0,0,0,0,0,0,0,0,0,0,0,0,0,0,0,0,0],"sum_hessian":[5.633184E1,4.7625607E1,8.706236E0,3.2391117E1,1.5234487E1,6.855231E0,1.8510048E0,1.7585747E1,1.480537E1,5.2840347E0,9.950452E0,1.462226E0,5.393005E0,1.189088E1,5.6948676E0,6.4179854E0,8.387385E0,4.0153837E0,1.268651E0,4.074422E0,5.8760304E0,3.2352886E0,2.1577163E0,7.97117E0,3.9197102E0,2.6068919E0,3.0879757E0,2.4837518E0,3.934234E0,6.9661994E0,1.421186E0,2.8415213E0,1.1738625E0,1.0058612E0,4.8701696E0,1.1551569E0,1.0025594E0],"tree_param":{"num_deleted":"0","num_feature":"9","num_nodes":"37","size_leaf_vector":"1"}},{"base_weights":[1.8927315E-2,1.6434078E-1,-1.1234199E-2,-2.5778788E-1,2.5076661E-2,4.0893734E-1,-3.4136266E-2,-7.5132936E-2,7.3120105E-1,-4.4044575E-1,2.7037956E-2,3.170162E-2,2.5022292E-1,-2.5349775E-1,-3.994989E-2,1.3816147E-1,-7.241732E-3],"categories":[],"categories_nodes":[],"categories_segments":[],"categories_sizes":[],"default_left":[0,0,0,0,0,0,0,0,0,0,0,0,0,0,0,0,0],"id":26,"left_children":[1,-1,3,-1,5,7,9,-1,11,13,15,-1,-1,-1,-1,-1,-1],"loss_changes":[9.4031006E-1,0E0,1.7376803E0,0E0,1.2266116E0,1.7637787E0,1.1839373E0,0E0,1.5261674E-1,5.634229E-1,9.4806045E-1,0E0,0E0,0E0,0E0,0E0,0E0],"parents":[2147483647,0,0,2,2,4,4,5,5,6,6,8,8,9,9,10,10],"right_children":[2,-1,4,-1,6,8,10,-1,12,14,16,-1,-1,-1,-1,-1,-1],"split_conditions":[1E0,1.6434078E-1,3E0,-2.5778788E-1,7E0,1E0,6.646754E6,-7.5132936E-2,5.641598E6,1.3E1,6E0,3.170162E-2,2.5022292E-1,-2.5349775E-1,-3.994989E-2,1.3816147E-1,-7.241732E-3],"split_indices":[8,0,8,0,7,7,1,0,0,7,8,0,0,0,0,0,0],"split_type":[0,0,0,0,0,0,0,0,0,0,0,0,0,0,0,0,0],"sum_hessian":[5.41979E1,2.1770477E0,5.202085E1,1.3183854E0,5.0702465E1,6.2123246E0,4.4490143E1,2.0107365E0,4.201588E0,5.2245207E0,3.926562E1,1.0169997E0,3.1845887E0,1.3594257E0,3.8650951E0,3.5077732E0,3.5757847E1],"tree_param":{"num_deleted":"0","num_feature":"9","num_nodes":"17","size_leaf_vector":"1"}},{"base_weights":[1.2747718E-2,-3.511948E-2,2.8790236E-1,4.21637E-2,-5.6647325E-1,7.1314055E-1,-2.074954E-1,-1.9705303E-2,2.0823102E-1,-2.4319573E-1,-0E0,4.487865E-2,2.8324986E-1,6.3398905E-2,-1.9562532E-1,3.940532E-2,-3.1370413E-1,-3.2551054E-2,9.369553E-2],"categories":[],"categories_nodes":[],"categories_segments":[],"categories_sizes":[],"default_left":[0,0,0,0,0,0,0,0,0,0,0,0,0,0,0,0,0,0,0],"id":27,"left_children":[1,3,5,7,9,11,13,15,-1,-1,-1,-1,-1,-1,-1,17,-1,-1,-1],"loss_changes":[7.5244516E-1,2.0045753E0,1.9861941E0,1.7655253E0,7.9331267E-1,3.8736677E-1,1.0357418E0,2.5054102E0,0E0,0E0,0E0,0E0,0E0,0E0,0E0,1.5769553E0,0E0,0E0,0E0],"parents":[2147483647,0,0,1,1,2,2,3,3,4,4,5,5,6,6,7,7,15,15],"right_children":[2,4,6,8,10,12,14,16,-1,-1,-1,-1,-1,-1,-1,18,-1,-1,-1],"split_conditions":[5E1,4.1E1,1.38E2,4E1,6.70023E6,2.96E2,1.266E3,3.6E1,2.0823102E-1,-2.4319573E-1,-0E0,4.487865E-2,2.8324986E-1,6.3398905E-2,-1.9562532E-1,2.5E1,-3.1370413E-1,-3.2551054E-2,9.369553E-2],"split_indices":[8,8,2,8,1,3,3,8,0,0,0,0,0,0,0,8,0,0,0],"split_type":[0,0,0,0,0,0,0,0,0,0,0,0,0,0,0,0,0,0,0],"sum_hessian":[5.3442513E1,4.5956615E1,7.4858966E0,4.0760605E1,5.196009E0,3.9002972E0,3.5855997E0,3.7973328E1,2.7872787E0,3.2327192E0,1.9632899E0,1.7389134E0,2.1613836E0,2.000636E0,1.5849636E0,3.672176E1,1.2515668E0,2.3967999E1,1.2753762E1],"tree_param":{"num_deleted":"0","num_feature":"9","num_nodes":"19","size_leaf_vector":"1"}},{"base_weights":[7.487212E-3,1.4478551E-1,-1.8444054E-2,-3.6248156E-1,4.7222357E-2,-4.364505E-2,-3.8072592E-1,-3.1856284E-1,1.127114E-1,-5.535308E-1,2.7268308E-1,1.0470744E-1,-5.2835405E-1,2.007026E-1,5.5223923E-2,4.949868E-2,-2.92681E-1,-1.2662199E-1,2.1572216E-1,-2.2387466E-1,-1.503119E-2,-9.618761E-2,4.296066E-2],"categories":[],"categories_nodes":[],"categories_segments":[],"categories_sizes":[],"default_left":[0,0,0,0,0,0,0,0,0,0,0,0,0,0,0,0,0,0,0,0,0,0,0],"id":28,"left_children":[1,-1,3,5,7,9,-1,11,13,15,17,-1,19,-1,21,-1,-1,-1,-1,-1,-1,-1,-1],"loss_changes":[7.2087383E-1,0E0,1.2231187E0,2.3257484E0,1.0764115E0,1.3963692E0,0E0,1.1485078E0,1.1231326E0,1.2551798E0,1.9479882E0,0E0,4.7197354E-1,0E0,1.2246145E0,0E0,0E0,0E0,0E0,0E0,0E0,0E0,0E0],"parents":[2147483647,0,0,2,2,3,3,4,4,5,5,7,7,8,8,9,9,10,10,12,12,14,14],"right_children":[2,-1,4,6,8,10,-1,12,14,16,18,-1,20,-1,22,-1,-1,-1,-1,-1,-1,-1,-1],"split_conditions":[1E0,1.4478551E-1,1E1,8E0,5.643387E6,5E0,-3.8072592E-1,1.6E1,5.668941E6,7.8E1,3.7E1,1.0470744E-1,4E1,2.007026E-1,1E0,4.949868E-2,-2.92681E-1,-1.2662199E-1,2.1572216E-1,-2.2387466E-1,-1.503119E-2,-9.618761E-2,4.296066E-2],"split_indices":[8,0,8,8,0,8,0,8,0,2,3,0,8,0,3,0,0,0,0,0,0,0,0],"split_type":[0,0,0,0,0,0,0,0,0,0,0,0,0,0,0,0,0,0,0,0,0,0,0],"sum_hessian":[5.3019024E1,2.032009E0,5.0987015E1,7.691698E0,4.329532E1,6.5475025E0,1.1441956E0,5.7557235E0,3.7539593E1,2.3407454E0,4.206757E0,1.1035901E0,4.6521335E0,2.3567474E0,3.5182846E1,1.0038947E0,1.3368509E0,1.5792662E0,2.627491E0,2.667382E0,1.9847512E0,5.956263E0,2.9226583E1],"tree_param":{"num_deleted":"0","num_feature":"9","num_nodes":"23","size_leaf_vector":"1"}},{"base_weights":[-0E0,5.7946283E-2,-1.9710796E-1,-2.744644E-2,4.0601605E-1,-2.3256283E-1,5.31921E-2,2.0731017E-1,-1.3283397E-1,5.952902E-1,-0E0,-2.7019924E-1,3.961149E-1,-0E0,2.0039268E-1,3.1983727E-1,-2.1374434E-1,1.4970059E-2,2.5707895E-1,1.3516441E-1,-1.5241389E-1,1.4397004E-1,-6.0925186E-1,1.678982E-1,2.966989E-3,-1.1221125E-1,7.018212E-2,-1.8236244E-2,2.0577064E-1,-2.7476835E-1,-3.508123E-2,-2.8200385E-1,-3.256051E-2],"categories":[],"categories_nodes":[],"categories_segments":[],"categories_sizes":[],"default_left":[0,0,0,0,0,0,0,0,0,0,0,0,0,0,0,0,0,0,0,0,0,0,0,0,0,0,0,0,0,0,0,0,0],"id":29,"left_children":[1,3,5,7,9,-1,11,13,15,17,19,21,23,25,-1,27,29,-1,-1,-1,-1,-1,31,-1,-1,-1,-1,-1,-1,-1,-1,-1,-1],"loss_changes":[6.200797E-1,1.2857194E0,1.9025182E0,8.6417603E-1,6.8577087E-1,0E0,1.1668822E0,9.859159E-1,9.5326954E-1,7.063327E-1,1.057498E0,1.6543804E0,2.6211107E-1,8.1828076E-1,0E0,6.504957E-1,1.2530496E0,0E0,0E0,0E0,0E0,0E0,4.863404E-1,0E0,0E0,0E0,0E0,0E0,0E0,0E0,0E0,0E0,0E0],"parents":[2147483647,0,0,1,1,2,2,3,3,4,4,6,6,7,7,8,8,9,9,10,10,11,11,12,12,13,13,15,15,16,16,22,22],"right_children":[2,4,6,8,10,-1,12,14,16,18,20,22,24,26,-1,28,30,-1,-1,-1,-1,-1,32,-1,-1,-1,-1,-1,-1,-1,-1,-1,-1],"split_conditions":[2E1,1.8E1,1E0,1.2E1,3.1E1,-2.3256283E-1,9.7E1,6.693118E6,6E0,2.1E1,2.41E2,6.4E1,2.56E2,2E0,2.0039268E-1,5E0,1E1,1.4970059E-2,2.5707895E-1,1.3516441E-1,-1.5241389E-1,1.4397004E-1,7.9E1,1.678982E-1,2.966989E-3,-1.1221125E-1,7.018212E-2,-1.8236244E-2,2.0577064E-1,-2.7476835E-1,-3.508123E-2,-2.8200385E-1,-3.256051E-2],"split_indices":[7,7,6,7,8,0,2,1,8,2,2,2,2,7,0,8,8,0,0,0,0,0,2,0,0,0,0,0,0,0,0,0,0],"split_type":[0,0,0,0,0,0,0,0,0,0,0,0,0,0,0,0,0,0,0,0,0,0,0,0,0,0,0,0,0,0,0,0,0],"sum_hessian":[5.1972843E1,4.060867E1,1.1364175E1,3.3117683E1,7.4909863E0,2.9207385E0,8.443436E0,9.667279E0,2.3450405E1,4.8850904E0,2.605896E0,4.3045316E0,4.1389046E0,7.4301724E0,2.2371063E0,2.920741E0,2.0529663E1,2.093694E0,2.7913964E0,1.3828105E0,1.2230855E0,1.118866E0,3.1856654E0,2.4103003E0,1.7286043E0,2.5477784E0,4.882394E0,1.7068111E0,1.2139301E0,1.3371502E0,1.9192513E1,1.2698119E0,1.9158535E0],"tree_param":{"num_deleted":"0","num_feature":"9","num_nodes":"33","size_leaf_vector":"1"}},{"base_weights":[8.27586E-4,-3.0483779E-2,3.9613295E-1,1.2985355E-1,-1.1256547E-1,9.8814815E-3,1.5722688E-1,-8.806874E-3,6.2205744E-1,-2.0667113E-2,-5.432492E-1,3.7449864E-1,-2.3997499E-1,3.4267753E-2,2.5638577E-1,-1.3487718E-1,4.873469E-1,-2.4035536E-1,5.4745983E-2,1.8426444E-1,-0E0,-1.2449408E-1,4.8141632E-2,-1.4744188E-1,5.3300457E-3,2.3421195E-1,4.6807807E-4],"categories":[],"categories_nodes":[],"categories_segments":[],"categories_sizes":[],"default_left":[0,0,0,0,0,0,0,0,0,0,0,0,0,0,0,0,0,0,0,0,0,0,0,0,0,0,0],"id":30,"left_children":[1,3,5,7,9,-1,-1,11,13,15,17,19,21,-1,-1,23,25,-1,-1,-1,-1,-1,-1,-1,-1,-1,-1],"loss_changes":[6.8597203E-1,6.499468E-1,1.1687809E-1,1.1889431E0,1.2370718E0,0E0,0E0,1.2864057E0,2.526647E-1,1.6781536E0,1.2499869E0,4.629575E-1,7.4312097E-1,0E0,0E0,1.3695277E0,6.7137957E-1,0E0,0E0,0E0,0E0,0E0,0E0,0E0,0E0,0E0,0E0],"parents":[2147483647,0,0,1,1,2,2,3,3,4,4,7,7,8,8,9,9,10,10,11,11,12,12,15,15,16,16],"right_children":[2,4,6,8,10,-1,-1,12,14,16,18,20,22,-1,-1,24,26,-1,-1,-1,-1,-1,-1,-1,-1,-1,-1],"split_conditions":[3.11E2,6.4E1,3E1,5E1,6.775087E6,9.8814815E-3,1.5722688E-1,1.6E1,1.11E2,6.735726E6,6.791975E6,5.753581E6,6E0,3.4267753E-2,2.5638577E-1,5.681715E6,1.8E1,-2.4035536E-1,5.4745983E-2,1.8426444E-1,-0E0,-1.2449408E-1,4.8141632E-2,-1.4744188E-1,5.3300457E-3,2.3421195E-1,4.6807807E-4],"split_indices":[2,2,8,8,1,0,0,8,3,1,1,0,2,0,0,0,8,0,0,0,0,0,0,0,0,0,0],"split_type":[0,0,0,0,0,0,0,0,0,0,0,0,0,0,0,0,0,0,0,0,0,0,0,0,0,0,0],"sum_hessian":[5.0490925E1,4.7405914E1,3.0850132E0,1.5441799E1,3.1964113E1,1.3349099E0,1.7501031E0,1.2655512E1,2.7862875E0,2.7398134E1,4.565979E0,4.36507E0,8.290442E0,1.4786351E0,1.3076525E0,2.3129566E1,4.268568E0,3.3936605E0,1.1723186E0,2.2216647E0,2.1434052E0,5.9176927E0,2.3727493E0,6.4640684E0,1.6665497E1,2.1545296E0,2.1140385E0],"tree_param":{"num_deleted":"0","num_feature":"9","num_nodes":"27","size_leaf_vector":"1"}},{"base_weights":[1.3946046E-2,-1.1534356E-1,1.0314599E-1,-3.206371E-2,-1.584686E-1,-8.161479E-2,2.0968321E-1,-1.6381584E-1,5.2222514E-1,1.5055461E-1,-3.45507E-1,2.24095E-1,9.862689E-2,-1.7336845E-1,-2.4537073E-2,1.886921E-1,3.7758425E-2,-2.9103234E-1,5.58613E-1,-2.4917813E-1,4.390752E-2,-1.8465804E-5,4.2272225E-1,8.840058E-2,-9.635708E-2,4.386188E-2,-1.9639914E-1,2.0940895E-1,7.7571934E-3,-1.21137016E-1,1.673463E-1,1.4416717E-1,-5.3827696E-2,2.0519269E-1,-4.1390907E-2],"categories":[],"categories_nodes":[],"categories_segments":[],"categories_sizes":[],"default_left":[0,0,0,0,0,0,0,0,0,0,0,0,0,0,0,0,0,0,0,0,0,0,0,0,0,0,0,0,0,0,0,0,0,0,0],"id":31,"left_children":[1,3,5,7,-1,9,11,13,15,17,19,-1,21,-1,23,-1,-1,25,27,-1,29,31,33,-1,-1,-1,-1,-1,-1,-1,-1,-1,-1,-1,-1],"loss_changes":[6.0135734E-1,6.4652586E-1,6.458999E-1,1.4137841E0,0E0,7.957963E-1,1.0633397E0,8.482448E-1,1.0665655E-3,1.4117122E0,1.255697E0,0E0,6.264334E-1,0E0,1.3469388E0,0E0,0E0,7.5038445E-1,2.056179E-1,0E0,1.203446E0,1.3296865E0,8.0817604E-1,0E0,0E0,0E0,0E0,0E0,0E0,0E0,0E0,0E0,0E0,0E0,0E0],"parents":[2147483647,0,0,1,1,2,2,3,3,5,5,6,6,7,7,8,8,9,9,10,10,12,12,14,14,17,17,18,18,20,20,21,21,22,22],"right_children":[2,4,6,8,-1,10,12,14,16,18,20,-1,22,-1,24,-1,-1,26,28,-1,30,32,34,-1,-1,-1,-1,-1,-1,-1,-1,-1,-1,-1,-1],"split_conditions":[1E0,2E1,2E1,1.9E1,-1.584686E-1,6.696642E6,2.1E1,5.728366E6,5.753581E6,6.663597E6,6.714736E6,2.24095E-1,6.732074E6,-1.7336845E-1,5.863919E6,1.886921E-1,3.7758425E-2,6.8E1,1.463E3,-2.4917813E-1,5.785189E6,8E0,6.78717E6,8.840058E-2,-9.635708E-2,4.386188E-2,-1.9639914E-1,2.0940895E-1,7.7571934E-3,-1.21137016E-1,1.673463E-1,1.4416717E-1,-5.3827696E-2,2.0519269E-1,-4.1390907E-2],"split_indices":[4,7,8,7,0,1,8,0,0,1,1,0,1,0,0,0,0,2,3,0,0,3,1,0,0,0,0,0,0,0,0,0,0,0,0],"split_type":[0,0,0,0,0,0,0,0,0,0,0,0,0,0,0,0,0,0,0,0,0,0,0,0,0,0,0,0,0,0,0,0,0,0,0],"sum_hessian":[5.0218163E1,1.9924585E1,3.029358E1,1.7678623E1,2.2459621E0,1.0821619E1,1.9471958E1,1.4998428E1,2.6801944E0,5.7837143E0,5.0379047E0,2.2002668E0,1.7271692E1,2.801708E0,1.2196721E1,1.4504163E0,1.2297782E0,2.7977781E0,2.9859362E0,1.8532325E0,3.1846724E0,1.3771449E1,3.5002432E0,5.7158885E0,6.480832E0,1.4169405E0,1.3808377E0,1.9719647E0,1.0139713E0,1.7125111E0,1.4721613E0,3.1357582E0,1.0635691E1,2.359372E0,1.1408713E0],"tree_param":{"num_deleted":"0","num_feature":"9","num_nodes":"35","size_leaf_vector":"1"}},{"base_weights":[1.7134193E-2,-2.1988543E-2,3.2998022E-1,1.1526376E-2,-1.694246E-1,1.9674891E-1,-8.310208E-2,-2.459933E-1,7.372774E-2,1.15184665E-1,-4.9212798E-1,-2.2757898E-1,1.7006072E-1,3.403194E-2,-1.9531709E-1,7.9610944E-2,-1.191278E-1,1.03806786E-1,-3.4971891E-3],"categories":[],"categories_nodes":[],"categories_segments":[],"categories_sizes":[],"default_left":[0,0,0,0,0,0,0,0,0,0,0,0,0,0,0,0,0,0,0],"id":32,"left_children":[1,3,5,7,-1,-1,-1,9,11,-1,13,15,17,-1,-1,-1,-1,-1,-1],"loss_changes":[6.451977E-1,8.757715E-1,1.3786697E0,6.888761E-1,0E0,0E0,0E0,1.4825932E0,1.0684677E0,0E0,7.533376E-1,8.554846E-1,9.2820066E-1,0E0,0E0,0E0,0E0,0E0,0E0],"parents":[2147483647,0,0,1,1,2,2,3,3,7,7,8,8,10,10,11,11,12,12],"right_children":[2,4,6,8,-1,-1,-1,10,12,-1,14,16,18,-1,-1,-1,-1,-1,-1],"split_conditions":[5.897642E6,5.891882E6,6.787673E6,1E1,-1.694246E-1,1.9674891E-1,-8.310208E-2,4E1,3.5E1,1.15184665E-1,1E0,7E0,2.14E2,3.403194E-2,-1.9531709E-1,7.9610944E-2,-1.191278E-1,1.03806786E-1,-3.4971891E-3],"split_indices":[0,0,1,8,0,0,0,2,2,0,8,7,2,0,0,0,0,0,0],"split_type":[0,0,0,0,0,0,0,0,0,0,0,0,0,0,0,0,0,0,0],"sum_hessian":[4.860563E1,4.3745174E1,4.860453E0,4.194936E1,1.7958132E0,3.2174876E0,1.6429657E0,7.273577E0,3.4675785E1,1.7720654E0,5.501512E0,7.819077E0,2.6856707E1,1.0723902E0,4.4291215E0,1.7051297E0,6.1139474E0,1.3464674E1,1.3392034E1],"tree_param":{"num_deleted":"0","num_feature":"9","num_nodes":"19","size_leaf_vector":"1"}},{"base_weights":[1.1867456E-2,-1.6655259E-2,3.9549625E-1,2.0280067E-2,-5.281551E-1,1.6247222E-1,-0E0,-1.9677568E-2,1.5613544E-1,-2.3374404E-1,-8.610368E-4,1.3080428E-2,-1.5721141E-1,-3.7227955E-2,3.1959984E-2],"categories":[],"categories_nodes":[],"categories_segments":[],"categories_sizes":[],"default_left":[0,0,0,0,0,0,0,0,0,0,0,0,0,0,0],"id":33,"left_children":[1,3,5,7,9,-1,-1,11,-1,-1,-1,13,-1,-1,-1],"loss_changes":[5.791122E-1,9.3425864E-1,2.0601767E-1,9.3700665E-1,3.5866094E-1,0E0,0E0,7.419406E-1,0E0,0E0,0E0,5.199244E-1,0E0,0E0,0E0],"parents":[2147483647,0,0,1,1,2,2,3,3,4,4,7,7,11,11],"right_children":[2,4,6,8,10,-1,-1,12,-1,-1,-1,14,-1,-1,-1],"split_conditions":[6.789259E6,6.785316E6,5.906263E6,5.897642E6,5E0,1.6247222E-1,-0E0,5.891882E6,1.5613544E-1,-2.3374404E-1,-8.610368E-4,1E0,-1.5721141E-1,-3.7227955E-2,3.1959984E-2],"split_indices":[1,1,0,0,3,0,0,0,0,0,0,6,0,0,0],"split_type":[0,0,0,0,0,0,0,0,0,0,0,0,0,0,0],"sum_hessian":[4.7860752E1,4.519633E1,2.6644208E0,4.2865845E1,2.330488E0,1.656631E0,1.00779E0,4.0399166E1,2.4666772E0,1.1211317E0,1.2093563E0,3.8663765E1,1.7354009E0,1.5100603E1,2.3563162E1],"tree_param":{"num_deleted":"0","num_feature":"9","num_nodes":"15","size_leaf_vector":"1"}},{"base_weights":[6.3124155E-3,-2.3486039E-2,3.198412E-1,3.0795261E-2,-1.919787E-1,1.8402651E-1,-0E0,-7.674516E-2,3.3125052E-1,-2.927549E-1,5.708179E-2,-6.892961E-2,7.154426E-2,-1.9688861E-2,-1.8986717E-1,6.03741E-1,-1.8620104E-1,4.2143568E-1,-1.9835232E-1,-2.1579606E-2,1.411061E-1,2.0939438E-1,-0E0,2.113724E-1,-0E0,5.220566E-2,-1.2835191E-1],"categories":[],"categories_nodes":[],"categories_segments":[],"categories_sizes":[],"default_left":[0,0,0,0,0,0,0,0,0,0,0,0,0,0,0,0,0,0,0,0,0,0,0,0,0,0,0],"id":34,"left_children":[1,3,5,7,9,-1,11,13,15,-1,17,-1,-1,19,-1,21,-1,23,25,-1,-1,-1,-1,-1,-1,-1,-1],"loss_changes":[4.8442397E-1,4.2774442E-1,4.1581297E-1,1.148282E0,2.372407E0,0E0,2.2928807E-1,7.3392445E-1,2.8075237E0,0E0,9.896796E-1,0E0,0E0,6.185008E-1,0E0,4.6228957E-1,0E0,5.5853176E-1,6.211945E-1,0E0,0E0,0E0,0E0,0E0,0E0,0E0,0E0],"parents":[2147483647,0,0,1,1,2,2,3,3,4,4,6,6,7,7,8,8,10,10,13,13,15,15,17,17,18,18],"right_children":[2,4,6,8,10,-1,12,14,16,-1,18,-1,-1,20,-1,22,-1,24,26,-1,-1,-1,-1,-1,-1,-1,-1],"split_conditions":[2.93E2,1.742E3,5.753581E6,1.203E3,2.333E3,1.8402651E-1,6.756547E6,1.16E3,2.67E2,-2.927549E-1,3.252E3,-6.892961E-2,7.154426E-2,1.129E3,-1.8986717E-1,6.756131E6,-1.8620104E-1,2.1E1,5.709105E6,-2.1579606E-2,1.411061E-1,2.0939438E-1,-0E0,2.113724E-1,-0E0,5.220566E-2,-1.2835191E-1],"split_indices":[2,3,0,3,3,0,1,3,2,0,3,0,0,3,0,1,0,8,0,0,0,0,0,0,0,0,0],"split_type":[0,0,0,0,0,0,0,0,0,0,0,0,0,0,0,0,0,0,0,0,0,0,0,0,0,0,0],"sum_hessian":[4.6874588E1,4.3359726E1,3.5148606E0,3.2963875E1,1.0395851E1,1.3324696E0,2.1823912E0,2.4578396E1,8.385478E0,1.899842E0,8.49601E0,1.1018196E0,1.0805714E0,2.3393602E1,1.1847947E0,6.885342E0,1.5001361E0,3.3949819E0,5.1010275E0,2.209531E1,1.298292E0,5.848674E0,1.0366682E0,1.6975168E0,1.6974652E0,1.8710209E0,3.2300065E0],"tree_param":{"num_deleted":"0","num_feature":"9","num_nodes":"27","size_leaf_vector":"1"}},{"base_weights":[4.9766E-3,-2.0362224E-2,3.550897E-1,2.0830614E-2,-3.7082812E-1,7.4209846E-3,1.5035352E-1,-3.6945134E-2,4.233936E-1,-2.049926E-1,-0E0,1.0737416E-1,-1.9738676E-1,1.9742656E-1,-0E0,9.7297564E-2,-9.308116E-2,-1.6674716E-2,1.5644391E-1,7.2461374E-2,-8.611446E-2,1.04645655E-1,-8.96312E-2],"categories":[],"categories_nodes":[],"categories_segments":[],"categories_sizes":[],"default_left":[0,0,0,0,0,0,0,0,0,0,0,0,0,0,0,0,0,0,0,0,0,0,0],"id":35,"left_children":[1,3,5,7,9,-1,-1,11,13,-1,15,17,19,-1,21,-1,-1,-1,-1,-1,-1,-1,-1],"loss_changes":[4.6055427E-1,6.89654E-1,1.04626805E-1,1.0029949E0,5.9989315E-1,0E0,0E0,8.724064E-1,4.7545445E-1,0E0,4.288286E-1,1.3893095E0,7.7852315E-1,0E0,4.296568E-1,0E0,0E0,0E0,0E0,0E0,0E0,0E0,0E0],"parents":[2147483647,0,0,1,1,2,2,3,3,4,4,7,7,8,8,10,10,11,11,12,12,14,14],"right_children":[2,4,6,8,10,-1,-1,12,14,-1,16,18,20,-1,22,-1,-1,-1,-1,-1,-1,-1,-1],"split_conditions":[6.789259E6,6.775087E6,1E0,6.756803E6,5.785189E6,7.4209846E-3,1.5035352E-1,6.68694E6,6.767539E6,-2.049926E-1,1.74E2,6.667141E6,6E0,1.9742656E-1,1.213E3,9.7297564E-2,-9.308116E-2,-1.6674716E-2,1.5644391E-1,7.2461374E-2,-8.611446E-2,1.04645655E-1,-8.96312E-2],"split_indices":[1,1,4,1,0,0,0,1,1,0,2,1,8,0,3,0,0,0,0,0,0,0,0],"split_type":[0,0,0,0,0,0,0,0,0,0,0,0,0,0,0,0,0,0,0,0,0,0,0],"sum_hessian":[4.6326073E1,4.3811512E1,2.5145626E0,3.9789936E1,4.021576E0,1.3394594E0,1.1751031E0,3.5373024E1,4.4169116E0,1.7637566E0,2.2578192E0,1.8468159E1,1.6904865E1,2.34003E0,2.0768814E0,1.1232936E0,1.1345255E0,1.3700934E1,4.7672243E0,2.3909786E0,1.4513887E1,1.0282956E0,1.0485857E0],"tree_param":{"num_deleted":"0","num_feature":"9","num_nodes":"23","size_leaf_vector":"1"}},{"base_weights":[1.1302757E-2,2.237327E-1,-3.1667817E-2,-1.3863184E-1,4.496657E-1,1.0763663E-1,-5.5985596E-2,-8.898899E-2,3.0733761E-3,-0E0,2.2414409E-1,-1.9254693E-1,5.1950578E-2,7.22557E-2,-6.6692986E-2,-4.1291818E-2,-3.0373436E-1,4.9423692E-1,-1.0202994E-1,-5.870291E-2,1.0611795E-1,1.656406E-2,2.026136E-1,7.584916E-2,-9.052409E-2],"categories":[],"categories_nodes":[],"categories_segments":[],"categories_sizes":[],"default_left":[0,0,0,0,0,0,0,0,0,0,0,0,0,0,0,0,0,0,0,0,0,0,0,0,0],"id":36,"left_children":[1,3,5,7,9,-1,11,-1,-1,13,-1,15,17,-1,-1,19,-1,21,23,-1,-1,-1,-1,-1,-1],"loss_changes":[4.5361936E-1,7.804838E-1,3.641198E-1,1.2146688E-1,7.178724E-1,0E0,5.8737504E-1,0E0,0E0,2.2929251E-1,0E0,2.022167E0,1.5691341E0,0E0,0E0,1.0239074E0,0E0,3.6273777E-1,1.2700704E0,0E0,0E0,0E0,0E0,0E0,0E0],"parents":[2147483647,0,0,1,1,2,2,3,3,4,4,6,6,9,9,11,11,12,12,15,15,17,17,18,18],"right_children":[2,4,6,8,10,-1,12,-1,-1,14,-1,16,18,-1,-1,20,-1,22,24,-1,-1,-1,-1,-1,-1],"split_conditions":[1.1E1,2E0,1E0,2.96E2,6.657208E6,1.0763663E-1,2.5E1,-8.898899E-2,3.0733761E-3,6.645227E6,2.2414409E-1,2.1E1,3.1E1,7.22557E-2,-6.6692986E-2,5.872635E6,-3.0373436E-1,1E0,8.5E1,-5.870291E-2,1.0611795E-1,1.656406E-2,2.026136E-1,7.584916E-2,-9.052409E-2],"split_indices":[7,7,8,3,1,0,8,0,0,1,0,8,8,0,0,0,0,4,2,0,0,0,0,0,0],"split_type":[0,0,0,0,0,0,0,0,0,0,0,0,0,0,0,0,0,0,0,0,0,0,0,0,0],"sum_hessian":[4.5813835E1,7.391859E0,3.8421974E1,2.817224E0,4.574635E0,1.205152E0,3.7216824E1,1.2111292E0,1.606095E0,2.2694304E0,2.3052044E0,1.6492727E1,2.0724096E1,1.1296763E0,1.1397542E0,1.4913767E1,1.5789601E0,4.948876E0,1.5775221E1,1.1267784E1,3.6459827E0,1.9878631E0,2.9610128E0,5.404955E0,1.0370265E1],"tree_param":{"num_deleted":"0","num_feature":"9","num_nodes":"25","size_leaf_vector":"1"}},{"base_weights":[1.487676E-2,-1.014651E-1,9.514366E-2,-1.4846887E-1,-1.5859144E-2,-1.1693685E-2,2.5925317E-1,4.866472E-2,-1.274841E-1,6.0904693E-2,-3.6256993E-1,5.290774E-1,3.279766E-2,1.7041641E-1,-1.5933725E-1,-1.7260276E-1,2.13642E-1,9.047794E-3,-1.758052E-1,2.2651784E-1,-3.7403796E-2,-2.0701669E-1,3.5957724E-1,1.5125188E-1,-0E0,-1.500779E-1,3.7496507E-2,3.311557E-2,-1.979585E-1,1.1868794E-1,-2.466989E-2,1.7488837E-1,-0E0],"categories":[],"categories_nodes":[],"categories_segments":[],"categories_sizes":[],"default_left":[0,0,0,0,0,0,0,0,0,0,0,0,0,0,0,0,0,0,0,0,0,0,0,0,0,0,0,0,0,0,0,0,0],"id":37,"left_children":[1,3,5,-1,7,9,11,13,-1,15,17,19,21,23,25,27,29,-1,-1,-1,-1,-1,31,-1,-1,-1,-1,-1,-1,-1,-1,-1,-1],"loss_changes":[4.3841845E-1,5.7249945E-1,5.228174E-1,0E0,4.9751708E-1,5.02838E-1,6.3191235E-1,4.0961134E-1,0E0,5.858169E-1,3.7271732E-1,8.9595175E-1,1.9972359E0,6.289435E-1,6.5968996E-1,1.0013307E0,5.991564E-1,0E0,0E0,0E0,0E0,0E0,5.1959497E-1,0E0,0E0,0E0,0E0,0E0,0E0,0E0,0E0,0E0,0E0],"parents":[2147483647,0,0,1,1,2,2,4,4,5,5,6,6,7,7,9,9,10,10,11,11,12,12,13,13,14,14,15,15,16,16,22,22],"right_children":[2,4,6,-1,8,10,12,14,-1,16,18,20,22,24,26,28,30,-1,-1,-1,-1,-1,32,-1,-1,-1,-1,-1,-1,-1,-1,-1,-1],"split_conditions":[1E0,5.648391E6,1.277E3,-1.4846887E-1,3.185E3,1.166E3,1.742E3,5.867609E6,-1.274841E-1,2E1,2.44E2,2.68E2,2.333E3,1.4E1,5.889517E6,1.4E1,5.859657E6,9.047794E-3,-1.758052E-1,2.2651784E-1,-3.7403796E-2,-2.0701669E-1,3.952E3,1.5125188E-1,-0E0,-1.500779E-1,3.7496507E-2,3.311557E-2,-1.979585E-1,1.1868794E-1,-2.466989E-2,1.7488837E-1,-0E0],"split_indices":[4,0,3,0,3,3,3,0,0,8,2,2,3,7,0,8,0,0,0,0,0,0,3,0,0,0,0,0,0,0,0,0,0],"split_type":[0,0,0,0,0,0,0,0,0,0,0,0,0,0,0,0,0,0,0,0,0,0,0,0,0,0,0,0,0,0,0,0,0],"sum_hessian":[4.498184E1,1.7747705E1,2.723413E1,2.108436E0,1.563927E1,1.6688866E1,1.0545264E1,1.40584755E1,1.5807949E0,1.4276412E1,2.412454E0,4.0005894E0,6.544675E0,9.28504E0,4.773435E0,5.335154E0,8.941258E0,1.0262392E0,1.3862149E0,2.9714613E0,1.0291283E0,1.5961678E0,4.9485073E0,2.6493883E0,6.635652E0,1.9852533E0,2.7881815E0,3.7344842E0,1.6006699E0,5.5366554E0,3.4046028E0,2.792071E0,2.1564362E0],"tree_param":{"num_deleted":"0","num_feature":"9","num_nodes":"33","size_leaf_vector":"1"}},{"base_weights":[3.5761278E-3,-3.2426395E-2,2.6846218E-1,1.05335504E-1,-9.62292E-2,-0E0,1.7170085E-1,-6.601037E-2,4.8911524E-1,-2.2570345E-1,1.7464112E-1,-7.666222E-2,1.01878844E-1,9.092794E-2,-1.3615885E-1,2.1153994E-1,2.0119306E-2,4.1229692E-1,-3.6687267E-1,-2.0402096E-1,5.337337E-1,-6.794697E-2,8.047771E-2,1.5666991E-1,6.434838E-3,-2.0610328E-1,-5.3603694E-2,-0E0,2.9406473E-1],"categories":[],"categories_nodes":[],"categories_segments":[],"categories_sizes":[],"default_left":[0,0,0,0,0,0,0,0,0,0,0,0,0,0,0,0,0,0,0,0,0,0,0,0,0,0,0,0,0],"id":38,"left_children":[1,3,5,7,9,11,-1,13,15,17,19,-1,-1,21,-1,-1,-1,23,25,-1,27,-1,-1,-1,-1,-1,-1,-1,-1],"loss_changes":[4.565031E-1,3.5833436E-1,4.4156748E-1,9.0011406E-1,1.0322813E0,4.508105E-1,0E0,6.4849913E-1,2.560258E-1,1.924808E0,3.2403495E0,0E0,0E0,4.7737297E-1,0E0,0E0,0E0,1.028381E-1,8.042114E-1,0E0,1.7821841E0,0E0,0E0,0E0,0E0,0E0,0E0,0E0,0E0],"parents":[2147483647,0,0,1,1,2,2,3,3,4,4,5,5,7,7,8,8,9,9,10,10,13,13,17,17,18,18,20,20],"right_children":[2,4,6,8,10,12,-1,14,16,18,20,-1,-1,22,-1,-1,-1,24,26,-1,28,-1,-1,-1,-1,-1,-1,-1,-1],"split_conditions":[2.71E2,1.4E1,1.9E1,6.72426E6,5.785189E6,1E0,1.7170085E-1,5.872635E6,1.6E1,1E0,1E0,-7.666222E-2,1.01878844E-1,2E1,-1.3615885E-1,2.1153994E-1,2.0119306E-2,6.756131E6,1E0,-2.0402096E-1,1.6E1,-6.794697E-2,8.047771E-2,1.5666991E-1,6.434838E-3,-2.0610328E-1,-5.3603694E-2,-0E0,2.9406473E-1],"split_indices":[2,7,7,1,0,4,0,0,8,3,3,0,0,8,0,0,0,1,6,0,7,0,0,0,0,0,0,0,0],"split_type":[0,0,0,0,0,0,0,0,0,0,0,0,0,0,0,0,0,0,0,0,0,0,0,0,0,0,0,0,0],"sum_hessian":[4.348082E1,3.871839E1,4.7624254E0,1.1553658E1,2.7164736E1,3.1465566E0,1.6158689E0,8.379777E0,3.1738803E0,1.8742073E1,8.422662E0,1.8529801E0,1.2935764E0,6.327276E0,2.0525012E0,1.4989872E0,1.6748931E0,2.91936E0,1.5822714E1,2.1449418E0,6.2777195E0,1.9663792E0,4.360897E0,1.8164312E0,1.1029288E0,4.679852E0,1.1142862E1,3.2651174E0,3.0126023E0],"tree_param":{"num_deleted":"0","num_feature":"9","num_nodes":"29","size_leaf_vector":"1"}},{"base_weights":[1.02157565E-2,-1.2471922E-2,3.2298508E-1,2.6437774E-2,-3.7619334E-1,1.3614815E-1,-0E0,-1.6850432E-3,1.5678886E-1,-0E0,-1.5445778E-1,-5.6152754E-2,3.307945E-1,5.8783838E-3,-1.2038293E-1,1.643524E-1,-0E0],"categories":[],"categories_nodes":[],"categories_segments":[],"categories_sizes":[],"default_left":[0,0,0,0,0,0,0,0,0,0,0,0,0,0,0,0,0],"id":39,"left_children":[1,3,5,7,9,-1,-1,11,-1,-1,-1,13,15,-1,-1,-1,-1],"loss_changes":[3.4123692E-1,6.2363297E-1,1.24696136E-1,5.7801986E-1,2.5259733E-1,0E0,0E0,6.505446E-1,0E0,0E0,0E0,8.930776E-1,3.548782E-1,0E0,0E0,0E0,0E0],"parents":[2147483647,0,0,1,1,2,2,3,3,4,4,7,7,11,11,12,12],"right_children":[2,4,6,8,10,-1,-1,12,-1,-1,-1,14,16,-1,-1,-1,-1],"split_conditions":[6.789259E6,6.775834E6,5.901303E6,5.900818E6,6.4E1,1.3614815E-1,-0E0,6.756803E6,1.5678886E-1,-0E0,-1.5445778E-1,5.863919E6,6.767539E6,5.8783838E-3,-1.2038293E-1,1.643524E-1,-0E0],"split_indices":[1,1,0,0,2,0,0,1,0,0,0,0,1,0,0,0,0],"split_type":[0,0,0,0,0,0,0,0,0,0,0,0,0,0,0,0,0],"sum_hessian":[4.2145004E1,3.9891735E1,2.2532692E0,3.6625988E1,3.2657478E0,1.2532394E0,1.0000298E0,3.541389E1,1.2120956E0,1.0354326E0,2.2303152E0,3.1401493E1,4.0123987E0,2.628579E1,5.115703E0,2.0098944E0,2.0025043E0],"tree_param":{"num_deleted":"0","num_feature":"9","num_nodes":"17","size_leaf_vector":"1"}},{"base_weights":[1.3400677E-2,-1.5598664E-2,2.3312463E-1,2.5787557E-2,-2.0855835E-1,-0E0,1.4081666E-1,-1.1634662E-1,1.4016314E-1,-4.534605E-1,8.304171E-2,-6.517617E-2,9.0798795E-2,6.4607183E-3,-2.621551E-1,1.9035035E-1,4.038631E-2,-2.0562999E-1,-0E0,-2.9990712E-2,1.634081E-1,-4.169841E-2,7.2330005E-2],"categories":[],"categories_nodes":[],"categories_segments":[],"categories_sizes":[],"default_left":[0,0,0,0,0,0,0,0,0,0,0,0,0,0,0,0,0,0,0,0,0,0,0],"id":40,"left_children":[1,3,5,7,9,11,-1,13,15,17,-1,-1,-1,19,-1,-1,21,-1,-1,-1,-1,-1,-1],"loss_changes":[2.9748347E-1,3.2918677E-1,2.6865295E-1,5.3834337E-1,1.0101308E0,3.266527E-1,0E0,1.4328816E0,8.2212365E-1,5.331849E-1,0E0,0E0,0E0,8.5957646E-1,0E0,0E0,6.4412177E-1,0E0,0E0,0E0,0E0,0E0,0E0],"parents":[2147483647,0,0,1,1,2,2,3,3,4,4,5,5,7,7,8,8,9,9,13,13,16,16],"right_children":[2,4,6,8,10,12,-1,14,16,18,-1,-1,-1,20,-1,-1,22,-1,-1,-1,-1,-1,-1],"split_conditions":[2.71E2,2.44E2,1.9E1,2.5E1,6.700906E6,1E0,1.4081666E-1,2.1E1,2.6E1,1.368E3,8.304171E-2,-6.517617E-2,9.0798795E-2,2E1,-2.621551E-1,1.9035035E-1,1.6E1,-2.0562999E-1,-0E0,-2.9990712E-2,1.634081E-1,-4.169841E-2,7.2330005E-2],"split_indices":[2,2,7,8,1,4,0,8,8,3,0,0,0,8,0,0,7,0,0,0,0,0,0],"split_type":[0,0,0,0,0,0,0,0,0,0,0,0,0,0,0,0,0,0,0,0,0,0,0],"sum_hessian":[4.1702583E1,3.7259003E1,4.4435806E0,3.0965582E1,6.29342E0,2.8814864E0,1.5620942E0,1.3409764E1,1.7555817E1,4.3634815E0,1.9299381E0,1.7139535E0,1.1675329E0,1.2278602E1,1.1311623E0,1.8800058E0,1.5675811E1,2.482318E0,1.8811637E0,1.07761965E1,1.5024054E0,8.177091E0,7.49872E0],"tree_param":{"num_deleted":"0","num_feature":"9","num_nodes":"23","size_leaf_vector":"1"}},{"base_weights":[1.2892265E-2,-8.775993E-2,8.275837E-2,-8.030143E-3,-1.4372925E-1,1.6786407E-1,-1.5010917E-1,-1.672306E-1,2.6447466E-1,-0E0,3.9981598E-1,6.0400523E-2,-3.149514E-1,4.7532607E-2,-3.6077273E-1,-1.1155364E-1,2.3108757E-1,1.9720294E-1,-2.564576E-1,-0E0,6.287762E-1,7.417873E-2,-5.2543616E-1,1.0573609E-1,-1.027589E-1,-0E0,-1.7067176E-1,-1.5469992E-1,5.9746552E-2,-2.9607916E-2,1.321444E-1,5.9345443E-2,-1.2511413E-1,1.0224172E-1,-1.1440112E-1,2.3592749E-1,1.475646E-2,-2.2763653E-1,-2.1955665E-2],"categories":[],"categories_nodes":[],"categories_segments":[],"categories_sizes":[],"default_left":[0,0,0,0,0,0,0,0,0,0,0,0,0,0,0,0,0,0,0,0,0,0,0,0,0,0,0,0,0,0,0,0,0,0,0,0,0,0,0],"id":41,"left_children":[1,3,5,7,-1,9,11,13,15,17,19,-1,21,23,25,27,-1,29,31,33,35,-1,37,-1,-1,-1,-1,-1,-1,-1,-1,-1,-1,-1,-1,-1,-1,-1,-1],"loss_changes":[3.0308858E-1,4.8298573E-1,5.417421E-1,7.0643795E-1,0E0,7.4439776E-1,4.898885E-1,4.8994324E-1,1.2677972E0,6.8687123E-1,7.505945E-1,0E0,8.0401516E-1,7.9647577E-1,4.3895787E-1,6.5236443E-1,0E0,6.4420855E-1,5.2679724E-1,6.4431715E-1,3.5226393E-1,0E0,3.280511E-1,0E0,0E0,0E0,0E0,0E0,0E0,0E0,0E0,0E0,0E0,0E0,0E0,0E0,0E0,0E0,0E0],"parents":[2147483647,0,0,1,1,2,2,3,3,5,5,6,6,7,7,8,8,9,9,10,10,12,12,13,13,14,14,15,15,17,17,18,18,19,19,20,20,22,22],"right_children":[2,4,6,8,-1,10,12,14,16,18,20,-1,22,24,26,28,-1,30,32,34,36,-1,38,-1,-1,-1,-1,-1,-1,-1,-1,-1,-1,-1,-1,-1,-1,-1,-1],"split_conditions":[1E0,2E1,4.3E1,1.6E1,-1.4372925E-1,1.24E3,8.6E1,2.6E1,5.779209E6,1.9E1,1.2E1,6.0400523E-2,1.4E1,1.4E1,5.855888E6,1.9E1,2.3108757E-1,2E1,1E0,1.703E3,6.708386E6,7.417873E-2,2.22E2,1.0573609E-1,-1.027589E-1,-0E0,-1.7067176E-1,-1.5469992E-1,5.9746552E-2,-2.9607916E-2,1.321444E-1,5.9345443E-2,-1.2511413E-1,1.0224172E-1,-1.1440112E-1,2.3592749E-1,1.475646E-2,-2.2763653E-1,-2.1955665E-2],"split_indices":[4,7,8,7,0,3,2,8,0,7,8,0,7,7,0,7,0,8,3,3,1,0,2,0,0,0,0,0,0,0,0,0,0,0,0,0,0,0,0],"split_type":[0,0,0,0,0,0,0,0,0,0,0,0,0,0,0,0,0,0,0,0,0,0,0,0,0,0,0,0,0,0,0,0,0,0,0,0,0,0,0],"sum_hessian":[4.113857E1,1.6164234E1,2.4974335E1,1.4488459E1,1.6757756E0,1.8808865E1,6.165471E0,9.621029E0,4.8674297E0,1.1660251E1,7.1486135E0,1.7041644E0,4.4613066E0,4.673179E0,4.9478498E0,3.1255968E0,1.7418331E0,6.870479E0,4.789772E0,2.9554327E0,4.193181E0,1.0382568E0,3.4230502E0,2.8208442E0,1.852335E0,2.1996732E0,2.7481763E0,1.2117611E0,1.9138356E0,3.1826892E0,3.6877897E0,1.0277998E0,3.761972E0,1.6065313E0,1.3489014E0,2.8803232E0,1.3128576E0,1.6650145E0,1.7580357E0],"tree_param":{"num_deleted":"0","num_feature":"9","num_nodes":"39","size_leaf_vector":"1"}},{"base_weights":[1.0100127E-2,-1.4127779E-2,2.837566E-1,-5.3719923E-2,1.6856702E-1,1.4105764E-1,-0E0,-4.911319E-3,-2.180055E-1,4.47071E-1,-1.4851107E-1,-1.7697696E-1,8.33226E-2,-0E0,6.5085876E-1,-1.2720847E-1,3.9286554E-2,-4.0277014E-3,6.856479E-2,2.6136675E-1,3.301871E-2],"categories":[],"categories_nodes":[],"categories_segments":[],"categories_sizes":[],"default_left":[0,0,0,0,0,0,0,0,0,0,0,0,0,0,0,0,0,0,0,0,0],"id":42,"left_children":[1,3,5,7,9,-1,-1,11,-1,13,-1,15,17,-1,19,-1,-1,-1,-1,-1,-1],"loss_changes":[3.0251732E-1,2.7418637E-1,1.5640488E-1,9.95344E-1,1.4369003E0,0E0,0E0,5.035159E-1,0E0,5.010592E-1,0E0,9.526986E-1,3.2201588E-1,0E0,2.4398124E-1,0E0,0E0,0E0,0E0,0E0,0E0],"parents":[2147483647,0,0,1,1,2,2,3,3,4,4,7,7,9,9,11,11,12,12,14,14],"right_children":[2,4,6,8,10,-1,-1,12,-1,14,-1,16,18,-1,20,-1,-1,-1,-1,-1,-1],"split_conditions":[2.93E2,5E1,3.17E2,4.6E1,2.183E3,1.4105764E-1,-0E0,1E0,-2.180055E-1,6.672668E6,-1.4851107E-1,5.860724E6,1.24E3,-0E0,6.718312E6,-1.2720847E-1,3.9286554E-2,-4.0277014E-3,6.856479E-2,2.6136675E-1,3.301871E-2],"split_indices":[2,8,2,8,3,0,0,4,0,1,0,0,3,0,1,0,0,0,0,0,0],"split_type":[0,0,0,0,0,0,0,0,0,0,0,0,0,0,0,0,0,0,0,0,0],"sum_hessian":[3.9956333E1,3.7242092E1,2.7142394E0,3.1638887E1,5.6032057E0,1.0601865E0,1.6540529E0,3.0577095E1,1.0617923E0,4.282781E0,1.3204243E0,1.0407985E1,2.0169111E1,1.60743E0,2.6753514E0,5.74586E0,4.6621246E0,1.2236365E1,7.932745E0,1.3353226E0,1.3400288E0],"tree_param":{"num_deleted":"0","num_feature":"9","num_nodes":"21","size_leaf_vector":"1"}},{"base_weights":[8.581175E-3,1.7772302E-1,-2.9920962E-2,-1.5385887E-1,3.6721125E-1,-1.6594847E-1,4.914367E-2,-8.0375254E-2,-0E0,-1.5340081E-2,1.9824408E-1,1.4742818E-2,-3.6342022E-1,-9.422282E-2,5.260107E-1,4.303753E-2,-7.0946075E-2,-3.981204E-1,2.8689584E-1,-5.007341E-1,-4.9464905E-4,1.0880206E-1,-1.9320773E-1,-8.560122E-2,8.6283815E-1,-0E0,-1.8011448E-1,-8.544988E-2,1.5793602E-1,-6.71231E-3,-1.9466545E-1,-1.4828952E-2,-1.624588E-1,4.384458E-2,3.0729914E-1],"categories":[],"categories_nodes":[],"categories_segments":[],"categories_sizes":[],"default_left":[0,0,0,0,0,0,0,0,0,0,0,0,0,0,0,0,0,0,0,0,0,0,0,0,0,0,0,0,0,0,0,0,0,0,0],"id":43,"left_children":[1,3,5,7,9,11,13,-1,-1,15,-1,17,19,21,23,-1,-1,25,27,29,-1,-1,31,-1,33,-1,-1,-1,-1,-1,-1,-1,-1,-1,-1],"loss_changes":[2.8085986E-1,5.8364165E-1,3.7465298E-1,6.883852E-2,7.0478606E-1,4.9767557E-1,1.5401078E0,0E0,0E0,1.5790279E-1,0E0,9.335887E-1,2.683133E-1,8.2033163E-1,1.7268642E0,0E0,0E0,2.4892086E-1,8.838358E-1,2.3419452E-1,0E0,0E0,6.541072E-1,0E0,1.9792986E-1,0E0,0E0,0E0,0E0,0E0,0E0,0E0,0E0,0E0,0E0],"parents":[2147483647,0,0,1,1,2,2,3,3,4,4,5,5,6,6,9,9,11,11,12,12,13,13,14,14,17,17,18,18,19,19,22,22,24,24],"right_children":[2,4,6,8,10,12,14,-1,-1,16,-1,18,20,22,24,-1,-1,26,28,30,-1,-1,32,-1,34,-1,-1,-1,-1,-1,-1,-1,-1,-1,-1],"split_conditions":[1.2E1,2E0,1.6E1,2.96E2,6.657208E6,5.861162E6,5.785189E6,-8.0375254E-2,-0E0,6E0,1.9824408E-1,5.671339E6,1.8E3,1E0,6.656047E6,4.303753E-2,-7.0946075E-2,1.8E1,3.3E1,1.74E2,-4.9464905E-4,1.0880206E-1,6.729768E6,-8.560122E-2,1.1E1,-0E0,-1.8011448E-1,-8.544988E-2,1.5793602E-1,-6.71231E-3,-1.9466545E-1,-1.4828952E-2,-1.624588E-1,4.384458E-2,3.0729914E-1],"split_indices":[7,7,7,3,1,0,0,0,0,7,0,0,3,3,1,0,0,2,2,2,0,0,1,0,3,0,0,0,0,0,0,0,0,0,0],"split_type":[0,0,0,0,0,0,0,0,0,0,0,0,0,0,0,0,0,0,0,0,0,0,0,0,0,0,0,0,0,0,0,0,0,0,0],"sum_hessian":[3.9041325E1,7.0503054E0,3.1991018E1,2.4403226E0,4.6099825E0,1.1820396E1,2.0170624E1,1.0936214E0,1.3467011E0,2.265408E0,2.3445747E0,6.39122E0,5.429176E0,1.5963905E1,4.2067175E0,1.2598555E0,1.0055526E0,2.2093234E0,4.1818967E0,3.4566395E0,1.9725367E0,2.1884117E0,1.3775494E1,1.1918281E0,3.0148892E0,1.107558E0,1.1017655E0,1.055767E0,3.1261294E0,1.2491868E0,2.2074528E0,1.076216E1,3.0133333E0,1.0186068E0,1.9962825E0],"tree_param":{"num_deleted":"0","num_feature":"9","num_nodes":"35","size_leaf_vector":"1"}},{"base_weights":[3.1755415E-3,-1.6249541E-2,9.494422E-2,7.87824E-3,-3.182557E-1,-2.356869E-2,1.2618238E-1,-1.3182537E-1,-0E0,1.9420026E-3,-1.2934187E-1,-4.1219115E-2,2.618217E-2],"categories":[],"categories_nodes":[],"categories_segments":[],"categories_sizes":[],"default_left":[0,0,0,0,0,0,0,0,0,0,0,0,0],"id":44,"left_children":[1,3,-1,5,7,9,-1,-1,-1,11,-1,-1,-1],"loss_changes":[2.7379835E-1,3.0732027E-1,0E0,5.098726E-1,8.3710045E-2,3.938643E-1,0E0,0E0,0E0,3.9285502E-1,0E0,0E0,0E0],"parents":[2147483647,0,0,1,1,3,3,4,4,5,5,9,9],"right_children":[2,4,-1,6,8,10,-1,-1,-1,12,-1,-1,-1],"split_conditions":[6.79003E6,6.783879E6,9.494422E-2,5.895898E6,1.6E1,5.891882E6,1.2618238E-1,-1.3182537E-1,-0E0,6.667141E6,-1.2934187E-1,-4.1219115E-2,2.618217E-2],"split_indices":[1,1,0,0,7,0,0,0,0,1,0,0,0],"split_type":[0,0,0,0,0,0,0,0,0,0,0,0,0],"sum_hessian":[3.8210217E1,3.6571712E1,1.6385075E0,3.446133E1,2.1103792E0,3.2672535E1,1.7887976E0,1.0651197E0,1.0452596E0,3.1453665E1,1.21887E0,1.1269527E1,2.0184135E1],"tree_param":{"num_deleted":"0","num_feature":"9","num_nodes":"13","size_leaf_vector":"1"}},{"base_weights":[-0E0,1.7801894E-1,-3.5383444E-2,-6.0425695E-2,3.3994976E-1,-6.418002E-2,8.1021786E-2,-0E0,5.212147E-1,1.6254622E-1,-1.1066029E-1,1.0245021E-2,1.9936526E-1,3.132773E-1,-3.735741E-2,-1.97157E-1,-5.3114194E-2,1.6489011E-1,-5.8063143E-3,6.137249E-2,-4.2200822E-2],"categories":[],"categories_nodes":[],"categories_segments":[],"categories_sizes":[],"default_left":[0,0,0,0,0,0,0,0,0,0,0,0,0,0,0,0,0,0,0,0,0],"id":45,"left_children":[1,3,5,-1,7,9,-1,-1,11,13,15,-1,-1,17,-1,-1,19,-1,-1,-1,-1],"loss_changes":[2.6423746E-1,5.148468E-1,2.8587127E-1,0E0,3.6465168E-1,3.4101754E-1,0E0,0E0,1.642099E-1,2.8885245E-1,7.371797E-1,0E0,0E0,3.7915435E-1,0E0,0E0,5.9788305E-1,0E0,0E0,0E0,0E0],"parents":[2147483647,0,0,1,1,2,2,4,4,5,5,8,8,9,9,10,10,13,13,16,16],"right_children":[2,4,6,-1,8,10,-1,-1,12,14,16,-1,-1,18,-1,-1,20,-1,-1,-1,-1],"split_conditions":[1.1E1,1E0,3.13E2,-6.0425695E-2,1E0,6E0,8.1021786E-2,-0E0,6.647749E6,2.1E1,1E1,1.0245021E-2,1.9936526E-1,5.753581E6,-3.735741E-2,-1.97157E-1,1.8E1,1.6489011E-1,-5.8063143E-3,6.137249E-2,-4.2200822E-2],"split_indices":[7,7,2,0,3,8,0,0,1,7,8,0,0,0,0,0,8,0,0,0,0],"split_type":[0,0,0,0,0,0,0,0,0,0,0,0,0,0,0,0,0,0,0,0,0],"sum_hessian":[3.790941E1,6.0394263E0,3.1869982E1,1.548817E0,4.490609E0,3.0145327E1,1.7246547E0,1.8126258E0,2.6779835E0,4.3377337E0,2.5807592E1,1.0490755E0,1.628908E0,3.012848E0,1.3248858E0,1.3003045E0,2.4507288E1,1.5556858E0,1.4571621E0,5.586539E0,1.892075E1],"tree_param":{"num_deleted":"0","num_feature":"9","num_nodes":"21","size_leaf_vector":"1"}},{"base_weights":[3.8696884E-3,-9.0254076E-2,6.6794455E-2,-1.2685364E-1,-1.2643811E-2,1.3477944E-1,-1.0615274E-1,2.1259832E-1,-1.4134298E-1,-7.194149E-3,3.5016015E-1,7.2340705E-2,-2.4827456E-1,1.5771574E-1,-4.932476E-2,-4.3483442E-1,3.5995014E-2,1.3696393E-1,-4.1329288E-1,-0E0,4.0717903E-1,-4.8398378E-1,2.0607412E-2,-9.1720976E-2,6.5856695E-2,-1.8837479E-1,-0E0,1.3889898E-1,-5.7925094E-2,1.01613246E-1,-2.8479459E-2,-2.0845391E-1,-0E0,3.5824396E-2,1.7817686E-1,-1.691628E-2,-1.8055207E-1],"categories":[],"categories_nodes":[],"categories_segments":[],"categories_sizes":[],"default_left":[0,0,0,0,0,0,0,0,0,0,1,0,0,0,0,0,0,0,0,0,0,0,0,0,0,0,0,0,0,0,0,0,0,0,0,0,0],"id":46,"left_children":[1,3,5,-1,7,9,11,13,15,17,19,-1,21,-1,23,25,27,29,31,-1,33,35,-1,-1,-1,-1,-1,-1,-1,-1,-1,-1,-1,-1,-1,-1,-1],"loss_changes":[2.314829E-1,3.4343487E-1,3.0244884E-1,0E0,4.1711298E-1,5.955493E-1,4.0562555E-1,4.8866755E-1,5.519E-1,7.699375E-1,1.511944E-1,0E0,4.9747202E-1,0E0,3.167567E-1,3.849123E-1,7.674509E-1,4.8758468E-1,4.2585516E-1,0E0,2.0716953E-1,7.914239E-2,0E0,0E0,0E0,0E0,0E0,0E0,0E0,0E0,0E0,0E0,0E0,0E0,0E0,0E0,0E0],"parents":[2147483647,0,0,1,1,2,2,4,4,5,5,6,6,7,7,8,8,9,9,10,10,12,12,14,14,15,15,16,16,17,17,18,18,20,20,21,21],"right_children":[2,4,6,-1,8,10,12,14,16,18,20,-1,22,-1,24,26,28,30,32,-1,34,36,-1,-1,-1,-1,-1,-1,-1,-1,-1,-1,-1,-1,-1,-1,-1],"split_conditions":[1E0,5.648391E6,4.3E1,-1.2685364E-1,1.2E1,2.5E1,5.679447E6,6.658096E6,1.148E3,1.6E1,1E0,7.2340705E-2,6.70023E6,1.5771574E-1,1.9E1,6.773122E6,1.42E3,5.742229E6,6.8E1,-0E0,1.11E2,1.6E1,2.0607412E-2,-9.1720976E-2,6.5856695E-2,-1.8837479E-1,-0E0,1.3889898E-1,-5.7925094E-2,1.01613246E-1,-2.8479459E-2,-2.0845391E-1,-0E0,3.5824396E-2,1.7817686E-1,-1.691628E-2,-1.8055207E-1],"split_indices":[4,0,8,0,3,8,0,1,3,8,6,0,1,0,7,1,3,0,2,0,2,7,0,0,0,0,0,0,0,0,0,0,0,0,0,0,0],"split_type":[0,0,0,0,0,0,0,0,0,0,0,0,0,0,0,0,0,0,0,0,0,0,0,0,0,0,0,0,0,0,0,0,0,0,0,0,0],"sum_hessian":[3.746215E1,1.4199227E1,2.3262924E1,1.6010919E0,1.2598136E1,1.7272184E1,5.9907393E0,4.061324E0,8.536812E0,1.0712847E1,6.559338E0,1.333035E0,4.6577044E0,1.565026E0,2.496298E0,2.880883E0,5.655928E0,8.2136345E0,2.4992123E0,1.0569563E0,5.502382E0,2.5499895E0,2.1077151E0,1.3978496E0,1.0984485E0,1.8373694E0,1.0435137E0,1.7707202E0,3.8852081E0,4.376623E0,3.8370109E0,1.1199979E0,1.3792144E0,3.0214322E0,2.4809496E0,1.0537606E0,1.4962288E0],"tree_param":{"num_deleted":"0","num_feature":"9","num_nodes":"37","size_leaf_vector":"1"}},{"base_weights":[-0E0,-3.137696E-2,1.6736269E-1,2.5097396E-2,-3.6986265E-1,3.9744452E-1,-1.2465671E-1,-2.2676215E-2,1.5458676E-1,-1.6467242E-1,-0E0,-0E0,1.7644343E-1,-9.1438234E-2,2.4780849E-1,-5.8375403E-2,3.5655417E-2,-5.282015E-2,1.3665384E-1],"categories":[],"categories_nodes":[],"categories_segments":[],"categories_sizes":[],"default_left":[0,0,0,0,0,0,0,0,0,0,0,0,0,0,0,0,0,0,0],"id":47,"left_children":[1,3,5,7,9,11,-1,13,-1,-1,-1,-1,-1,15,17,-1,-1,-1,-1],"loss_changes":[2.1188805E-1,6.5245676E-1,1.027745E0,7.160211E-1,3.6769187E-1,4.3567187E-1,0E0,4.9544716E-1,0E0,0E0,0E0,0E0,0E0,5.070947E-1,5.7454634E-1,0E0,0E0,0E0,0E0],"parents":[2147483647,0,0,1,1,2,2,3,3,4,4,5,5,7,7,13,13,14,14],"right_children":[2,4,6,8,10,12,-1,14,-1,-1,-1,-1,-1,16,18,-1,-1,-1,-1],"split_conditions":[5E1,4.1E1,2.183E3,4E1,6.70023E6,6.672668E6,-1.2465671E-1,2.61E2,1.5458676E-1,-1.6467242E-1,-0E0,-0E0,1.7644343E-1,5.860178E6,1.4E1,-5.8375403E-2,3.5655417E-2,-5.282015E-2,1.3665384E-1],"split_indices":[8,8,3,8,1,1,0,2,0,0,0,0,0,0,7,0,0,0,0],"split_type":[0,0,0,0,0,0,0,0,0,0,0,0,0,0,0,0,0,0,0],"sum_hessian":[3.6288147E1,3.0842709E1,5.4454384E0,2.6972864E1,3.8698447E0,4.2554073E0,1.1900313E0,2.5260717E1,1.7121464E0,2.4313924E0,1.4384522E0,1.5960395E0,2.6593676E0,2.0963163E1,4.297555E0,1.4433695E1,6.529468E0,1.3050729E0,2.9924822E0],"tree_param":{"num_deleted":"0","num_feature":"9","num_nodes":"19","size_leaf_vector":"1"}},{"base_weights":[2.4283E-3,-9.3967676E-2,6.6798024E-2,-2.143854E-2,-1.2789457E-1,1.4377161E-2,2.553597E-1,-1.4961354E-1,1.8249957E-1,9.793558E-2,-1.5621485E-1,1.3486964E-1,-3.7474718E-3,5.6479316E-2,-3.6231482E-1,-4.5890268E-2,3.9819905E-1,-7.0280395E-3,3.246548E-1,8.475288E-2,-8.076162E-2,-0E0,-1.5004338E-1,-1.4507418E-2,2.3831049E-1,3.827333E-2,-9.8092444E-2,1.9728643E-1,-0E0],"categories":[],"categories_nodes":[],"categories_segments":[],"categories_sizes":[],"default_left":[0,0,0,0,0,0,0,0,0,0,0,0,0,0,0,0,0,0,0,0,0,0,0,0,0,0,0,0,0],"id":48,"left_children":[1,3,5,7,-1,9,11,13,15,17,-1,-1,-1,19,21,-1,23,25,27,-1,-1,-1,-1,-1,-1,-1,-1,-1,-1],"loss_changes":[2.3353371E-1,2.988168E-1,2.0094597E-1,3.7198246E-1,0E0,8.9434534E-1,2.8975132E-1,4.4666302E-1,4.6799546E-1,4.6562177E-1,0E0,0E0,0E0,4.609154E-1,2.19612E-1,0E0,7.634925E-1,6.246978E-1,6.7389953E-1,0E0,0E0,0E0,0E0,0E0,0E0,0E0,0E0,0E0,0E0],"parents":[2147483647,0,0,1,1,2,2,3,3,5,5,6,6,7,7,8,8,9,9,13,13,14,14,16,16,17,17,18,18],"right_children":[2,4,6,8,-1,10,12,14,16,18,-1,-1,-1,20,22,-1,24,26,28,-1,-1,-1,-1,-1,-1,-1,-1,-1,-1],"split_conditions":[1E0,2E1,2.333E3,1.6E1,